digraph Tree {
node [shape=box, fontname="helvetica"] ;
edge [fontname="helvetica"] ;
0 [label="X[31] <= 0.5\nentropy = 0.806\nsamples = 36177\nvalue = [27253, 8924]"] ;
1 [label="X[3] <= 7073.5\nentropy = 0.356\nsamples = 19311\nvalue = [18010, 1301]"] ;
0 -> 1 [labeldistance=2.5, labelangle=45, headlabel="True"] ;
2 [label="X[2] <= 12.5\nentropy = 0.291\nsamples = 18964\nvalue = [17997, 967]"] ;
1 -> 2 ;
3 [label="X[0] <= 28.5\nentropy = 0.165\nsamples = 15056\nvalue = [14690, 366]"] ;
2 -> 3 ;
4 [label="X[4] <= 2391.5\nentropy = 0.039\nsamples = 6498\nvalue = [6471, 27]"] ;
3 -> 4 ;
5 [label="X[5] <= 59.0\nentropy = 0.035\nsamples = 6495\nvalue = [6471, 24]"] ;
4 -> 5 ;
6 [label="X[0] <= 21.5\nentropy = 0.027\nsamples = 6314\nvalue = [6297, 17]"] ;
5 -> 6 ;
7 [label="X[15] <= 0.5\nentropy = 0.004\nsamples = 2944\nvalue = [2943, 1]"] ;
6 -> 7 ;
8 [label="entropy = 0.0\nsamples = 2795\nvalue = [2795, 0]"] ;
7 -> 8 ;
9 [label="X[58] <= 0.5\nentropy = 0.058\nsamples = 149\nvalue = [148, 1]"] ;
7 -> 9 ;
10 [label="entropy = 0.0\nsamples = 134\nvalue = [134, 0]"] ;
9 -> 10 ;
11 [label="X[1] <= 318693.0\nentropy = 0.353\nsamples = 15\nvalue = [14, 1]"] ;
9 -> 11 ;
12 [label="entropy = 0.0\nsamples = 12\nvalue = [12, 0]"] ;
11 -> 12 ;
13 [label="X[5] <= 33.5\nentropy = 0.918\nsamples = 3\nvalue = [2, 1]"] ;
11 -> 13 ;
14 [label="entropy = 0.0\nsamples = 2\nvalue = [2, 0]"] ;
13 -> 14 ;
15 [label="entropy = 0.0\nsamples = 1\nvalue = [0, 1]"] ;
13 -> 15 ;
16 [label="X[1] <= 29352.5\nentropy = 0.043\nsamples = 3370\nvalue = [3354, 16]"] ;
6 -> 16 ;
17 [label="X[50] <= 0.5\nentropy = 0.391\nsamples = 39\nvalue = [36, 3]"] ;
16 -> 17 ;
18 [label="X[5] <= 39.0\nentropy = 0.297\nsamples = 38\nvalue = [36, 2]"] ;
17 -> 18 ;
19 [label="X[61] <= 0.5\nentropy = 0.764\nsamples = 9\nvalue = [7, 2]"] ;
18 -> 19 ;
20 [label="X[0] <= 23.0\nentropy = 0.918\nsamples = 3\nvalue = [1, 2]"] ;
19 -> 20 ;
21 [label="entropy = 0.0\nsamples = 1\nvalue = [1, 0]"] ;
20 -> 21 ;
22 [label="entropy = 0.0\nsamples = 2\nvalue = [0, 2]"] ;
20 -> 22 ;
23 [label="entropy = 0.0\nsamples = 6\nvalue = [6, 0]"] ;
19 -> 23 ;
24 [label="entropy = 0.0\nsamples = 29\nvalue = [29, 0]"] ;
18 -> 24 ;
25 [label="entropy = 0.0\nsamples = 1\nvalue = [0, 1]"] ;
17 -> 25 ;
26 [label="X[7] <= 0.5\nentropy = 0.037\nsamples = 3331\nvalue = [3318, 13]"] ;
16 -> 26 ;
27 [label="X[57] <= 0.5\nentropy = 0.028\nsamples = 3212\nvalue = [3203, 9]"] ;
26 -> 27 ;
28 [label="X[5] <= 31.0\nentropy = 0.02\nsamples = 3117\nvalue = [3111, 6]"] ;
27 -> 28 ;
29 [label="entropy = 0.0\nsamples = 651\nvalue = [651, 0]"] ;
28 -> 29 ;
30 [label="X[5] <= 32.5\nentropy = 0.025\nsamples = 2466\nvalue = [2460, 6]"] ;
28 -> 30 ;
31 [label="X[0] <= 22.5\nentropy = 0.196\nsamples = 33\nvalue = [32, 1]"] ;
30 -> 31 ;
32 [label="X[43] <= 0.5\nentropy = 0.811\nsamples = 4\nvalue = [3, 1]"] ;
31 -> 32 ;
33 [label="entropy = 0.0\nsamples = 3\nvalue = [3, 0]"] ;
32 -> 33 ;
34 [label="entropy = 0.0\nsamples = 1\nvalue = [0, 1]"] ;
32 -> 34 ;
35 [label="entropy = 0.0\nsamples = 29\nvalue = [29, 0]"] ;
31 -> 35 ;
36 [label="X[0] <= 23.5\nentropy = 0.021\nsamples = 2433\nvalue = [2428, 5]"] ;
30 -> 36 ;
37 [label="entropy = 0.0\nsamples = 784\nvalue = [784, 0]"] ;
36 -> 37 ;
38 [label="X[45] <= 0.5\nentropy = 0.03\nsamples = 1649\nvalue = [1644, 5]"] ;
36 -> 38 ;
39 [label="X[53] <= 0.5\nentropy = 0.025\nsamples = 1593\nvalue = [1589, 4]"] ;
38 -> 39 ;
40 [label="X[48] <= 0.5\nentropy = 0.035\nsamples = 1074\nvalue = [1070, 4]"] ;
39 -> 40 ;
41 [label="X[1] <= 162025.5\nentropy = 0.029\nsamples = 1034\nvalue = [1031, 3]"] ;
40 -> 41 ;
42 [label="X[1] <= 161691.0\nentropy = 0.064\nsamples = 396\nvalue = [393, 3]"] ;
41 -> 42 ;
43 [label="X[0] <= 26.5\nentropy = 0.046\nsamples = 395\nvalue = [393, 2]"] ;
42 -> 43 ;
44 [label="entropy = 0.0\nsamples = 223\nvalue = [223, 0]"] ;
43 -> 44 ;
45 [label="X[0] <= 27.5\nentropy = 0.091\nsamples = 172\nvalue = [170, 2]"] ;
43 -> 45 ;
46 [label="X[21] <= 0.5\nentropy = 0.167\nsamples = 81\nvalue = [79, 2]"] ;
45 -> 46 ;
47 [label="X[5] <= 49.5\nentropy = 0.1\nsamples = 77\nvalue = [76, 1]"] ;
46 -> 47 ;
48 [label="entropy = 0.0\nsamples = 71\nvalue = [71, 0]"] ;
47 -> 48 ;
49 [label="X[1] <= 140382.5\nentropy = 0.65\nsamples = 6\nvalue = [5, 1]"] ;
47 -> 49 ;
50 [label="entropy = 0.0\nsamples = 5\nvalue = [5, 0]"] ;
49 -> 50 ;
51 [label="entropy = 0.0\nsamples = 1\nvalue = [0, 1]"] ;
49 -> 51 ;
52 [label="X[38] <= 0.5\nentropy = 0.811\nsamples = 4\nvalue = [3, 1]"] ;
46 -> 52 ;
53 [label="entropy = 0.0\nsamples = 3\nvalue = [3, 0]"] ;
52 -> 53 ;
54 [label="entropy = 0.0\nsamples = 1\nvalue = [0, 1]"] ;
52 -> 54 ;
55 [label="entropy = 0.0\nsamples = 91\nvalue = [91, 0]"] ;
45 -> 55 ;
56 [label="entropy = 0.0\nsamples = 1\nvalue = [0, 1]"] ;
42 -> 56 ;
57 [label="entropy = 0.0\nsamples = 638\nvalue = [638, 0]"] ;
41 -> 57 ;
58 [label="X[34] <= 0.5\nentropy = 0.169\nsamples = 40\nvalue = [39, 1]"] ;
40 -> 58 ;
59 [label="entropy = 0.0\nsamples = 39\nvalue = [39, 0]"] ;
58 -> 59 ;
60 [label="entropy = 0.0\nsamples = 1\nvalue = [0, 1]"] ;
58 -> 60 ;
61 [label="entropy = 0.0\nsamples = 519\nvalue = [519, 0]"] ;
39 -> 61 ;
62 [label="X[14] <= 0.5\nentropy = 0.129\nsamples = 56\nvalue = [55, 1]"] ;
38 -> 62 ;
63 [label="entropy = 0.0\nsamples = 55\nvalue = [55, 0]"] ;
62 -> 63 ;
64 [label="entropy = 0.0\nsamples = 1\nvalue = [0, 1]"] ;
62 -> 64 ;
65 [label="X[10] <= 0.5\nentropy = 0.202\nsamples = 95\nvalue = [92, 3]"] ;
27 -> 65 ;
66 [label="X[5] <= 42.5\nentropy = 0.087\nsamples = 91\nvalue = [90, 1]"] ;
65 -> 66 ;
67 [label="entropy = 0.0\nsamples = 81\nvalue = [81, 0]"] ;
66 -> 67 ;
68 [label="X[42] <= 0.5\nentropy = 0.469\nsamples = 10\nvalue = [9, 1]"] ;
66 -> 68 ;
69 [label="entropy = 0.0\nsamples = 9\nvalue = [9, 0]"] ;
68 -> 69 ;
70 [label="entropy = 0.0\nsamples = 1\nvalue = [0, 1]"] ;
68 -> 70 ;
71 [label="X[0] <= 25.5\nentropy = 1.0\nsamples = 4\nvalue = [2, 2]"] ;
65 -> 71 ;
72 [label="X[5] <= 35.0\nentropy = 0.918\nsamples = 3\nvalue = [2, 1]"] ;
71 -> 72 ;
73 [label="entropy = 0.0\nsamples = 1\nvalue = [0, 1]"] ;
72 -> 73 ;
74 [label="entropy = 0.0\nsamples = 2\nvalue = [2, 0]"] ;
72 -> 74 ;
75 [label="entropy = 0.0\nsamples = 1\nvalue = [0, 1]"] ;
71 -> 75 ;
76 [label="X[2] <= 4.5\nentropy = 0.212\nsamples = 119\nvalue = [115, 4]"] ;
26 -> 76 ;
77 [label="entropy = 0.0\nsamples = 1\nvalue = [0, 1]"] ;
76 -> 77 ;
78 [label="X[46] <= 0.5\nentropy = 0.171\nsamples = 118\nvalue = [115, 3]"] ;
76 -> 78 ;
79 [label="entropy = 0.0\nsamples = 92\nvalue = [92, 0]"] ;
78 -> 79 ;
80 [label="X[4] <= 2053.5\nentropy = 0.516\nsamples = 26\nvalue = [23, 3]"] ;
78 -> 80 ;
81 [label="X[53] <= 0.5\nentropy = 0.402\nsamples = 25\nvalue = [23, 2]"] ;
80 -> 81 ;
82 [label="entropy = 0.0\nsamples = 14\nvalue = [14, 0]"] ;
81 -> 82 ;
83 [label="X[1] <= 234027.0\nentropy = 0.684\nsamples = 11\nvalue = [9, 2]"] ;
81 -> 83 ;
84 [label="X[1] <= 224172.5\nentropy = 0.863\nsamples = 7\nvalue = [5, 2]"] ;
83 -> 84 ;
85 [label="X[0] <= 23.5\nentropy = 0.65\nsamples = 6\nvalue = [5, 1]"] ;
84 -> 85 ;
86 [label="X[1] <= 205387.0\nentropy = 0.918\nsamples = 3\nvalue = [2, 1]"] ;
85 -> 86 ;
87 [label="entropy = 0.0\nsamples = 1\nvalue = [0, 1]"] ;
86 -> 87 ;
88 [label="entropy = 0.0\nsamples = 2\nvalue = [2, 0]"] ;
86 -> 88 ;
89 [label="entropy = 0.0\nsamples = 3\nvalue = [3, 0]"] ;
85 -> 89 ;
90 [label="entropy = 0.0\nsamples = 1\nvalue = [0, 1]"] ;
84 -> 90 ;
91 [label="entropy = 0.0\nsamples = 4\nvalue = [4, 0]"] ;
83 -> 91 ;
92 [label="entropy = 0.0\nsamples = 1\nvalue = [0, 1]"] ;
80 -> 92 ;
93 [label="X[39] <= 0.5\nentropy = 0.236\nsamples = 181\nvalue = [174, 7]"] ;
5 -> 93 ;
94 [label="X[64] <= 0.5\nentropy = 0.13\nsamples = 166\nvalue = [163, 3]"] ;
93 -> 94 ;
95 [label="X[1] <= 26434.5\nentropy = 0.095\nsamples = 165\nvalue = [163, 2]"] ;
94 -> 95 ;
96 [label="entropy = 0.0\nsamples = 1\nvalue = [0, 1]"] ;
95 -> 96 ;
97 [label="X[18] <= 0.5\nentropy = 0.054\nsamples = 164\nvalue = [163, 1]"] ;
95 -> 97 ;
98 [label="entropy = 0.0\nsamples = 161\nvalue = [161, 0]"] ;
97 -> 98 ;
99 [label="X[43] <= 0.5\nentropy = 0.918\nsamples = 3\nvalue = [2, 1]"] ;
97 -> 99 ;
100 [label="entropy = 0.0\nsamples = 2\nvalue = [2, 0]"] ;
99 -> 100 ;
101 [label="entropy = 0.0\nsamples = 1\nvalue = [0, 1]"] ;
99 -> 101 ;
102 [label="entropy = 0.0\nsamples = 1\nvalue = [0, 1]"] ;
94 -> 102 ;
103 [label="X[8] <= 0.5\nentropy = 0.837\nsamples = 15\nvalue = [11, 4]"] ;
93 -> 103 ;
104 [label="X[62] <= 0.5\nentropy = 0.811\nsamples = 4\nvalue = [1, 3]"] ;
103 -> 104 ;
105 [label="entropy = 0.0\nsamples = 1\nvalue = [1, 0]"] ;
104 -> 105 ;
106 [label="entropy = 0.0\nsamples = 3\nvalue = [0, 3]"] ;
104 -> 106 ;
107 [label="X[1] <= 272307.0\nentropy = 0.439\nsamples = 11\nvalue = [10, 1]"] ;
103 -> 107 ;
108 [label="entropy = 0.0\nsamples = 10\nvalue = [10, 0]"] ;
107 -> 108 ;
109 [label="entropy = 0.0\nsamples = 1\nvalue = [0, 1]"] ;
107 -> 109 ;
110 [label="entropy = 0.0\nsamples = 3\nvalue = [0, 3]"] ;
4 -> 110 ;
111 [label="X[5] <= 41.5\nentropy = 0.241\nsamples = 8558\nvalue = [8219, 339]"] ;
3 -> 111 ;
112 [label="X[45] <= 0.5\nentropy = 0.173\nsamples = 6645\nvalue = [6473, 172]"] ;
111 -> 112 ;
113 [label="X[4] <= 2248.0\nentropy = 0.152\nsamples = 6299\nvalue = [6161, 138]"] ;
112 -> 113 ;
114 [label="X[39] <= 0.5\nentropy = 0.145\nsamples = 6277\nvalue = [6147, 130]"] ;
113 -> 114 ;
115 [label="X[58] <= 0.5\nentropy = 0.127\nsamples = 5770\nvalue = [5669, 101]"] ;
114 -> 115 ;
116 [label="X[62] <= 0.5\nentropy = 0.146\nsamples = 4673\nvalue = [4576, 97]"] ;
115 -> 116 ;
117 [label="X[0] <= 47.5\nentropy = 0.102\nsamples = 2710\nvalue = [2674, 36]"] ;
116 -> 117 ;
118 [label="X[2] <= 9.5\nentropy = 0.062\nsamples = 1648\nvalue = [1636, 12]"] ;
117 -> 118 ;
119 [label="X[36] <= 0.5\nentropy = 0.021\nsamples = 984\nvalue = [982, 2]"] ;
118 -> 119 ;
120 [label="entropy = 0.0\nsamples = 676\nvalue = [676, 0]"] ;
119 -> 120 ;
121 [label="X[1] <= 210709.5\nentropy = 0.057\nsamples = 308\nvalue = [306, 2]"] ;
119 -> 121 ;
122 [label="entropy = 0.0\nsamples = 212\nvalue = [212, 0]"] ;
121 -> 122 ;
123 [label="X[1] <= 211222.0\nentropy = 0.146\nsamples = 96\nvalue = [94, 2]"] ;
121 -> 123 ;
124 [label="entropy = 0.0\nsamples = 1\nvalue = [0, 1]"] ;
123 -> 124 ;
125 [label="X[1] <= 405784.0\nentropy = 0.084\nsamples = 95\nvalue = [94, 1]"] ;
123 -> 125 ;
126 [label="entropy = 0.0\nsamples = 86\nvalue = [86, 0]"] ;
125 -> 126 ;
127 [label="X[1] <= 423480.0\nentropy = 0.503\nsamples = 9\nvalue = [8, 1]"] ;
125 -> 127 ;
128 [label="entropy = 0.0\nsamples = 1\nvalue = [0, 1]"] ;
127 -> 128 ;
129 [label="entropy = 0.0\nsamples = 8\nvalue = [8, 0]"] ;
127 -> 129 ;
130 [label="X[5] <= 35.5\nentropy = 0.113\nsamples = 664\nvalue = [654, 10]"] ;
118 -> 130 ;
131 [label="entropy = 0.0\nsamples = 162\nvalue = [162, 0]"] ;
130 -> 131 ;
132 [label="X[30] <= 0.5\nentropy = 0.141\nsamples = 502\nvalue = [492, 10]"] ;
130 -> 132 ;
133 [label="X[1] <= 202708.0\nentropy = 0.13\nsamples = 500\nvalue = [491, 9]"] ;
132 -> 133 ;
134 [label="X[1] <= 202039.5\nentropy = 0.175\nsamples = 344\nvalue = [335, 9]"] ;
133 -> 134 ;
135 [label="X[51] <= 0.5\nentropy = 0.16\nsamples = 343\nvalue = [335, 8]"] ;
134 -> 135 ;
136 [label="X[46] <= 0.5\nentropy = 0.076\nsamples = 216\nvalue = [214, 2]"] ;
135 -> 136 ;
137 [label="X[2] <= 11.5\nentropy = 0.043\nsamples = 213\nvalue = [212, 1]"] ;
136 -> 137 ;
138 [label="entropy = 0.0\nsamples = 186\nvalue = [186, 0]"] ;
137 -> 138 ;
139 [label="X[1] <= 159590.5\nentropy = 0.229\nsamples = 27\nvalue = [26, 1]"] ;
137 -> 139 ;
140 [label="entropy = 0.0\nsamples = 21\nvalue = [21, 0]"] ;
139 -> 140 ;
141 [label="X[1] <= 167338.5\nentropy = 0.65\nsamples = 6\nvalue = [5, 1]"] ;
139 -> 141 ;
142 [label="entropy = 0.0\nsamples = 1\nvalue = [0, 1]"] ;
141 -> 142 ;
143 [label="entropy = 0.0\nsamples = 5\nvalue = [5, 0]"] ;
141 -> 143 ;
144 [label="X[56] <= 0.5\nentropy = 0.918\nsamples = 3\nvalue = [2, 1]"] ;
136 -> 144 ;
145 [label="entropy = 0.0\nsamples = 2\nvalue = [2, 0]"] ;
144 -> 145 ;
146 [label="entropy = 0.0\nsamples = 1\nvalue = [0, 1]"] ;
144 -> 146 ;
147 [label="X[5] <= 36.5\nentropy = 0.275\nsamples = 127\nvalue = [121, 6]"] ;
135 -> 147 ;
148 [label="entropy = 0.0\nsamples = 1\nvalue = [0, 1]"] ;
147 -> 148 ;
149 [label="X[1] <= 25125.0\nentropy = 0.241\nsamples = 126\nvalue = [121, 5]"] ;
147 -> 149 ;
150 [label="X[0] <= 33.0\nentropy = 1.0\nsamples = 2\nvalue = [1, 1]"] ;
149 -> 150 ;
151 [label="entropy = 0.0\nsamples = 1\nvalue = [1, 0]"] ;
150 -> 151 ;
152 [label="entropy = 0.0\nsamples = 1\nvalue = [0, 1]"] ;
150 -> 152 ;
153 [label="X[2] <= 10.5\nentropy = 0.206\nsamples = 124\nvalue = [120, 4]"] ;
149 -> 153 ;
154 [label="X[0] <= 46.5\nentropy = 0.289\nsamples = 79\nvalue = [75, 4]"] ;
153 -> 154 ;
155 [label="X[6] <= 0.5\nentropy = 0.242\nsamples = 75\nvalue = [72, 3]"] ;
154 -> 155 ;
156 [label="X[1] <= 110322.0\nentropy = 0.185\nsamples = 71\nvalue = [69, 2]"] ;
155 -> 156 ;
157 [label="X[1] <= 107646.5\nentropy = 0.391\nsamples = 26\nvalue = [24, 2]"] ;
156 -> 157 ;
158 [label="X[1] <= 53672.5\nentropy = 0.242\nsamples = 25\nvalue = [24, 1]"] ;
157 -> 158 ;
159 [label="X[1] <= 49644.0\nentropy = 0.469\nsamples = 10\nvalue = [9, 1]"] ;
158 -> 159 ;
160 [label="entropy = 0.0\nsamples = 9\nvalue = [9, 0]"] ;
159 -> 160 ;
161 [label="entropy = 0.0\nsamples = 1\nvalue = [0, 1]"] ;
159 -> 161 ;
162 [label="entropy = 0.0\nsamples = 15\nvalue = [15, 0]"] ;
158 -> 162 ;
163 [label="entropy = 0.0\nsamples = 1\nvalue = [0, 1]"] ;
157 -> 163 ;
164 [label="entropy = 0.0\nsamples = 45\nvalue = [45, 0]"] ;
156 -> 164 ;
165 [label="X[1] <= 179750.5\nentropy = 0.811\nsamples = 4\nvalue = [3, 1]"] ;
155 -> 165 ;
166 [label="entropy = 0.0\nsamples = 3\nvalue = [3, 0]"] ;
165 -> 166 ;
167 [label="entropy = 0.0\nsamples = 1\nvalue = [0, 1]"] ;
165 -> 167 ;
168 [label="X[1] <= 179407.0\nentropy = 0.811\nsamples = 4\nvalue = [3, 1]"] ;
154 -> 168 ;
169 [label="entropy = 0.0\nsamples = 3\nvalue = [3, 0]"] ;
168 -> 169 ;
170 [label="entropy = 0.0\nsamples = 1\nvalue = [0, 1]"] ;
168 -> 170 ;
171 [label="entropy = 0.0\nsamples = 45\nvalue = [45, 0]"] ;
153 -> 171 ;
172 [label="entropy = 0.0\nsamples = 1\nvalue = [0, 1]"] ;
134 -> 172 ;
173 [label="entropy = 0.0\nsamples = 156\nvalue = [156, 0]"] ;
133 -> 173 ;
174 [label="X[2] <= 11.0\nentropy = 1.0\nsamples = 2\nvalue = [1, 1]"] ;
132 -> 174 ;
175 [label="entropy = 0.0\nsamples = 1\nvalue = [0, 1]"] ;
174 -> 175 ;
176 [label="entropy = 0.0\nsamples = 1\nvalue = [1, 0]"] ;
174 -> 176 ;
177 [label="X[1] <= 20309.5\nentropy = 0.156\nsamples = 1062\nvalue = [1038, 24]"] ;
117 -> 177 ;
178 [label="entropy = 0.0\nsamples = 1\nvalue = [0, 1]"] ;
177 -> 178 ;
179 [label="X[81] <= 0.5\nentropy = 0.151\nsamples = 1061\nvalue = [1038, 23]"] ;
177 -> 179 ;
180 [label="X[101] <= 0.5\nentropy = 0.146\nsamples = 1059\nvalue = [1037, 22]"] ;
179 -> 180 ;
181 [label="entropy = 0.0\nsamples = 94\nvalue = [94, 0]"] ;
180 -> 181 ;
182 [label="X[43] <= 0.5\nentropy = 0.157\nsamples = 965\nvalue = [943, 22]"] ;
180 -> 182 ;
183 [label="X[7] <= 0.5\nentropy = 0.181\nsamples = 731\nvalue = [711, 20]"] ;
182 -> 183 ;
184 [label="X[0] <= 58.5\nentropy = 0.162\nsamples = 673\nvalue = [657, 16]"] ;
183 -> 184 ;
185 [label="X[0] <= 57.5\nentropy = 0.217\nsamples = 375\nvalue = [362, 13]"] ;
184 -> 185 ;
186 [label="X[3] <= 4718.5\nentropy = 0.159\nsamples = 345\nvalue = [337, 8]"] ;
185 -> 186 ;
187 [label="X[38] <= 0.5\nentropy = 0.143\nsamples = 344\nvalue = [337, 7]"] ;
186 -> 187 ;
188 [label="X[1] <= 135166.5\nentropy = 0.113\nsamples = 331\nvalue = [326, 5]"] ;
187 -> 188 ;
189 [label="entropy = 0.0\nsamples = 110\nvalue = [110, 0]"] ;
188 -> 189 ;
190 [label="X[1] <= 135792.5\nentropy = 0.156\nsamples = 221\nvalue = [216, 5]"] ;
188 -> 190 ;
191 [label="X[35] <= 0.5\nentropy = 1.0\nsamples = 2\nvalue = [1, 1]"] ;
190 -> 191 ;
192 [label="entropy = 0.0\nsamples = 1\nvalue = [1, 0]"] ;
191 -> 192 ;
193 [label="entropy = 0.0\nsamples = 1\nvalue = [0, 1]"] ;
191 -> 193 ;
194 [label="X[5] <= 14.0\nentropy = 0.132\nsamples = 219\nvalue = [215, 4]"] ;
190 -> 194 ;
195 [label="X[10] <= 0.5\nentropy = 1.0\nsamples = 2\nvalue = [1, 1]"] ;
194 -> 195 ;
196 [label="entropy = 0.0\nsamples = 1\nvalue = [1, 0]"] ;
195 -> 196 ;
197 [label="entropy = 0.0\nsamples = 1\nvalue = [0, 1]"] ;
195 -> 197 ;
198 [label="X[1] <= 196553.0\nentropy = 0.105\nsamples = 217\nvalue = [214, 3]"] ;
194 -> 198 ;
199 [label="entropy = 0.0\nsamples = 105\nvalue = [105, 0]"] ;
198 -> 199 ;
200 [label="X[1] <= 197123.0\nentropy = 0.178\nsamples = 112\nvalue = [109, 3]"] ;
198 -> 200 ;
201 [label="entropy = 0.0\nsamples = 1\nvalue = [0, 1]"] ;
200 -> 201 ;
202 [label="X[0] <= 54.5\nentropy = 0.13\nsamples = 111\nvalue = [109, 2]"] ;
200 -> 202 ;
203 [label="entropy = 0.0\nsamples = 81\nvalue = [81, 0]"] ;
202 -> 203 ;
204 [label="X[1] <= 253559.0\nentropy = 0.353\nsamples = 30\nvalue = [28, 2]"] ;
202 -> 204 ;
205 [label="entropy = 0.0\nsamples = 13\nvalue = [13, 0]"] ;
204 -> 205 ;
206 [label="X[1] <= 259719.0\nentropy = 0.523\nsamples = 17\nvalue = [15, 2]"] ;
204 -> 206 ;
207 [label="entropy = 0.0\nsamples = 1\nvalue = [0, 1]"] ;
206 -> 207 ;
208 [label="X[42] <= 0.5\nentropy = 0.337\nsamples = 16\nvalue = [15, 1]"] ;
206 -> 208 ;
209 [label="entropy = 0.0\nsamples = 14\nvalue = [14, 0]"] ;
208 -> 209 ;
210 [label="X[1] <= 346636.0\nentropy = 1.0\nsamples = 2\nvalue = [1, 1]"] ;
208 -> 210 ;
211 [label="entropy = 0.0\nsamples = 1\nvalue = [1, 0]"] ;
210 -> 211 ;
212 [label="entropy = 0.0\nsamples = 1\nvalue = [0, 1]"] ;
210 -> 212 ;
213 [label="X[19] <= 0.5\nentropy = 0.619\nsamples = 13\nvalue = [11, 2]"] ;
187 -> 213 ;
214 [label="X[33] <= 0.5\nentropy = 0.414\nsamples = 12\nvalue = [11, 1]"] ;
213 -> 214 ;
215 [label="entropy = 0.0\nsamples = 11\nvalue = [11, 0]"] ;
214 -> 215 ;
216 [label="entropy = 0.0\nsamples = 1\nvalue = [0, 1]"] ;
214 -> 216 ;
217 [label="entropy = 0.0\nsamples = 1\nvalue = [0, 1]"] ;
213 -> 217 ;
218 [label="entropy = 0.0\nsamples = 1\nvalue = [0, 1]"] ;
186 -> 218 ;
219 [label="X[47] <= 0.5\nentropy = 0.65\nsamples = 30\nvalue = [25, 5]"] ;
185 -> 219 ;
220 [label="X[1] <= 110691.0\nentropy = 0.267\nsamples = 22\nvalue = [21, 1]"] ;
219 -> 220 ;
221 [label="X[1] <= 109686.0\nentropy = 0.544\nsamples = 8\nvalue = [7, 1]"] ;
220 -> 221 ;
222 [label="entropy = 0.0\nsamples = 7\nvalue = [7, 0]"] ;
221 -> 222 ;
223 [label="entropy = 0.0\nsamples = 1\nvalue = [0, 1]"] ;
221 -> 223 ;
224 [label="entropy = 0.0\nsamples = 14\nvalue = [14, 0]"] ;
220 -> 224 ;
225 [label="X[35] <= 0.5\nentropy = 1.0\nsamples = 8\nvalue = [4, 4]"] ;
219 -> 225 ;
226 [label="X[5] <= 32.0\nentropy = 0.722\nsamples = 5\nvalue = [4, 1]"] ;
225 -> 226 ;
227 [label="entropy = 0.0\nsamples = 4\nvalue = [4, 0]"] ;
226 -> 227 ;
228 [label="entropy = 0.0\nsamples = 1\nvalue = [0, 1]"] ;
226 -> 228 ;
229 [label="entropy = 0.0\nsamples = 3\nvalue = [0, 3]"] ;
225 -> 229 ;
230 [label="X[0] <= 74.5\nentropy = 0.081\nsamples = 298\nvalue = [295, 3]"] ;
184 -> 230 ;
231 [label="X[1] <= 236689.5\nentropy = 0.036\nsamples = 267\nvalue = [266, 1]"] ;
230 -> 231 ;
232 [label="entropy = 0.0\nsamples = 218\nvalue = [218, 0]"] ;
231 -> 232 ;
233 [label="X[1] <= 240654.0\nentropy = 0.144\nsamples = 49\nvalue = [48, 1]"] ;
231 -> 233 ;
234 [label="entropy = 0.0\nsamples = 1\nvalue = [0, 1]"] ;
233 -> 234 ;
235 [label="entropy = 0.0\nsamples = 48\nvalue = [48, 0]"] ;
233 -> 235 ;
236 [label="X[0] <= 75.5\nentropy = 0.345\nsamples = 31\nvalue = [29, 2]"] ;
230 -> 236 ;
237 [label="X[35] <= 0.5\nentropy = 0.918\nsamples = 6\nvalue = [4, 2]"] ;
236 -> 237 ;
238 [label="X[5] <= 28.0\nentropy = 0.918\nsamples = 3\nvalue = [1, 2]"] ;
237 -> 238 ;
239 [label="entropy = 0.0\nsamples = 1\nvalue = [1, 0]"] ;
238 -> 239 ;
240 [label="entropy = 0.0\nsamples = 2\nvalue = [0, 2]"] ;
238 -> 240 ;
241 [label="entropy = 0.0\nsamples = 3\nvalue = [3, 0]"] ;
237 -> 241 ;
242 [label="entropy = 0.0\nsamples = 25\nvalue = [25, 0]"] ;
236 -> 242 ;
243 [label="X[1] <= 29445.5\nentropy = 0.362\nsamples = 58\nvalue = [54, 4]"] ;
183 -> 243 ;
244 [label="entropy = 0.0\nsamples = 1\nvalue = [0, 1]"] ;
243 -> 244 ;
245 [label="X[0] <= 63.5\nentropy = 0.297\nsamples = 57\nvalue = [54, 3]"] ;
243 -> 245 ;
246 [label="entropy = 0.0\nsamples = 41\nvalue = [41, 0]"] ;
245 -> 246 ;
247 [label="X[1] <= 185097.0\nentropy = 0.696\nsamples = 16\nvalue = [13, 3]"] ;
245 -> 247 ;
248 [label="entropy = 0.0\nsamples = 12\nvalue = [12, 0]"] ;
247 -> 248 ;
249 [label="X[5] <= 14.0\nentropy = 0.811\nsamples = 4\nvalue = [1, 3]"] ;
247 -> 249 ;
250 [label="entropy = 0.0\nsamples = 1\nvalue = [1, 0]"] ;
249 -> 250 ;
251 [label="entropy = 0.0\nsamples = 3\nvalue = [0, 3]"] ;
249 -> 251 ;
252 [label="X[14] <= 0.5\nentropy = 0.071\nsamples = 234\nvalue = [232, 2]"] ;
182 -> 252 ;
253 [label="entropy = 0.0\nsamples = 222\nvalue = [222, 0]"] ;
252 -> 253 ;
254 [label="X[8] <= 0.5\nentropy = 0.65\nsamples = 12\nvalue = [10, 2]"] ;
252 -> 254 ;
255 [label="entropy = 0.0\nsamples = 2\nvalue = [0, 2]"] ;
254 -> 255 ;
256 [label="entropy = 0.0\nsamples = 10\nvalue = [10, 0]"] ;
254 -> 256 ;
257 [label="X[42] <= 0.5\nentropy = 1.0\nsamples = 2\nvalue = [1, 1]"] ;
179 -> 257 ;
258 [label="entropy = 0.0\nsamples = 1\nvalue = [0, 1]"] ;
257 -> 258 ;
259 [label="entropy = 0.0\nsamples = 1\nvalue = [1, 0]"] ;
257 -> 259 ;
260 [label="X[53] <= 0.5\nentropy = 0.2\nsamples = 1963\nvalue = [1902, 61]"] ;
116 -> 260 ;
261 [label="X[0] <= 35.5\nentropy = 0.23\nsamples = 1577\nvalue = [1518, 59]"] ;
260 -> 261 ;
262 [label="X[3] <= 4444.0\nentropy = 0.111\nsamples = 544\nvalue = [536, 8]"] ;
261 -> 262 ;
263 [label="X[34] <= 0.5\nentropy = 0.088\nsamples = 542\nvalue = [536, 6]"] ;
262 -> 263 ;
264 [label="X[71] <= 0.5\nentropy = 0.053\nsamples = 499\nvalue = [496, 3]"] ;
263 -> 264 ;
265 [label="X[38] <= 0.5\nentropy = 0.038\nsamples = 496\nvalue = [494, 2]"] ;
264 -> 265 ;
266 [label="entropy = 0.0\nsamples = 351\nvalue = [351, 0]"] ;
265 -> 266 ;
267 [label="X[1] <= 348041.5\nentropy = 0.105\nsamples = 145\nvalue = [143, 2]"] ;
265 -> 267 ;
268 [label="X[1] <= 55324.5\nentropy = 0.063\nsamples = 134\nvalue = [133, 1]"] ;
267 -> 268 ;
269 [label="X[0] <= 29.5\nentropy = 0.391\nsamples = 13\nvalue = [12, 1]"] ;
268 -> 269 ;
270 [label="entropy = 0.0\nsamples = 1\nvalue = [0, 1]"] ;
269 -> 270 ;
271 [label="entropy = 0.0\nsamples = 12\nvalue = [12, 0]"] ;
269 -> 271 ;
272 [label="entropy = 0.0\nsamples = 121\nvalue = [121, 0]"] ;
268 -> 272 ;
273 [label="X[1] <= 350972.0\nentropy = 0.439\nsamples = 11\nvalue = [10, 1]"] ;
267 -> 273 ;
274 [label="entropy = 0.0\nsamples = 1\nvalue = [0, 1]"] ;
273 -> 274 ;
275 [label="entropy = 0.0\nsamples = 10\nvalue = [10, 0]"] ;
273 -> 275 ;
276 [label="X[28] <= 0.5\nentropy = 0.918\nsamples = 3\nvalue = [2, 1]"] ;
264 -> 276 ;
277 [label="entropy = 0.0\nsamples = 2\nvalue = [2, 0]"] ;
276 -> 277 ;
278 [label="entropy = 0.0\nsamples = 1\nvalue = [0, 1]"] ;
276 -> 278 ;
279 [label="X[46] <= 0.5\nentropy = 0.365\nsamples = 43\nvalue = [40, 3]"] ;
263 -> 279 ;
280 [label="X[1] <= 43394.0\nentropy = 0.276\nsamples = 42\nvalue = [40, 2]"] ;
279 -> 280 ;
281 [label="entropy = 0.0\nsamples = 1\nvalue = [0, 1]"] ;
280 -> 281 ;
282 [label="X[36] <= 0.5\nentropy = 0.165\nsamples = 41\nvalue = [40, 1]"] ;
280 -> 282 ;
283 [label="entropy = 0.0\nsamples = 38\nvalue = [38, 0]"] ;
282 -> 283 ;
284 [label="X[0] <= 33.5\nentropy = 0.918\nsamples = 3\nvalue = [2, 1]"] ;
282 -> 284 ;
285 [label="entropy = 0.0\nsamples = 2\nvalue = [2, 0]"] ;
284 -> 285 ;
286 [label="entropy = 0.0\nsamples = 1\nvalue = [0, 1]"] ;
284 -> 286 ;
287 [label="entropy = 0.0\nsamples = 1\nvalue = [0, 1]"] ;
279 -> 287 ;
288 [label="entropy = 0.0\nsamples = 2\nvalue = [0, 2]"] ;
262 -> 288 ;
289 [label="X[43] <= 0.5\nentropy = 0.284\nsamples = 1033\nvalue = [982, 51]"] ;
261 -> 289 ;
290 [label="X[48] <= 0.5\nentropy = 0.312\nsamples = 907\nvalue = [856, 51]"] ;
289 -> 290 ;
291 [label="X[2] <= 4.5\nentropy = 0.287\nsamples = 876\nvalue = [832, 44]"] ;
290 -> 291 ;
292 [label="entropy = 0.0\nsamples = 67\nvalue = [67, 0]"] ;
291 -> 292 ;
293 [label="X[1] <= 38276.0\nentropy = 0.305\nsamples = 809\nvalue = [765, 44]"] ;
291 -> 293 ;
294 [label="entropy = 0.0\nsamples = 44\nvalue = [44, 0]"] ;
293 -> 294 ;
295 [label="X[1] <= 39596.5\nentropy = 0.318\nsamples = 765\nvalue = [721, 44]"] ;
293 -> 295 ;
296 [label="X[2] <= 7.0\nentropy = 0.811\nsamples = 4\nvalue = [1, 3]"] ;
295 -> 296 ;
297 [label="entropy = 0.0\nsamples = 1\nvalue = [1, 0]"] ;
296 -> 297 ;
298 [label="entropy = 0.0\nsamples = 3\nvalue = [0, 3]"] ;
296 -> 298 ;
299 [label="X[46] <= 0.5\nentropy = 0.303\nsamples = 761\nvalue = [720, 41]"] ;
295 -> 299 ;
300 [label="X[0] <= 46.5\nentropy = 0.283\nsamples = 732\nvalue = [696, 36]"] ;
299 -> 300 ;
301 [label="X[1] <= 171569.5\nentropy = 0.2\nsamples = 417\nvalue = [404, 13]"] ;
300 -> 301 ;
302 [label="X[38] <= 0.5\nentropy = 0.089\nsamples = 178\nvalue = [176, 2]"] ;
301 -> 302 ;
303 [label="entropy = 0.0\nsamples = 95\nvalue = [95, 0]"] ;
302 -> 303 ;
304 [label="X[0] <= 40.5\nentropy = 0.164\nsamples = 83\nvalue = [81, 2]"] ;
302 -> 304 ;
305 [label="entropy = 0.0\nsamples = 47\nvalue = [47, 0]"] ;
304 -> 305 ;
306 [label="X[29] <= 0.5\nentropy = 0.31\nsamples = 36\nvalue = [34, 2]"] ;
304 -> 306 ;
307 [label="entropy = 0.0\nsamples = 14\nvalue = [14, 0]"] ;
306 -> 307 ;
308 [label="X[0] <= 44.5\nentropy = 0.439\nsamples = 22\nvalue = [20, 2]"] ;
306 -> 308 ;
309 [label="X[8] <= 0.5\nentropy = 0.592\nsamples = 14\nvalue = [12, 2]"] ;
308 -> 309 ;
310 [label="entropy = 0.0\nsamples = 4\nvalue = [4, 0]"] ;
309 -> 310 ;
311 [label="X[1] <= 129522.5\nentropy = 0.722\nsamples = 10\nvalue = [8, 2]"] ;
309 -> 311 ;
312 [label="X[28] <= 0.5\nentropy = 0.863\nsamples = 7\nvalue = [5, 2]"] ;
311 -> 312 ;
313 [label="X[1] <= 85951.0\nentropy = 0.65\nsamples = 6\nvalue = [5, 1]"] ;
312 -> 313 ;
314 [label="X[1] <= 79893.0\nentropy = 0.918\nsamples = 3\nvalue = [2, 1]"] ;
313 -> 314 ;
315 [label="entropy = 0.0\nsamples = 2\nvalue = [2, 0]"] ;
314 -> 315 ;
316 [label="entropy = 0.0\nsamples = 1\nvalue = [0, 1]"] ;
314 -> 316 ;
317 [label="entropy = 0.0\nsamples = 3\nvalue = [3, 0]"] ;
313 -> 317 ;
318 [label="entropy = 0.0\nsamples = 1\nvalue = [0, 1]"] ;
312 -> 318 ;
319 [label="entropy = 0.0\nsamples = 3\nvalue = [3, 0]"] ;
311 -> 319 ;
320 [label="entropy = 0.0\nsamples = 8\nvalue = [8, 0]"] ;
308 -> 320 ;
321 [label="X[1] <= 172943.5\nentropy = 0.269\nsamples = 239\nvalue = [228, 11]"] ;
301 -> 321 ;
322 [label="entropy = 0.0\nsamples = 2\nvalue = [0, 2]"] ;
321 -> 322 ;
323 [label="X[54] <= 0.5\nentropy = 0.233\nsamples = 237\nvalue = [228, 9]"] ;
321 -> 323 ;
324 [label="X[1] <= 205121.0\nentropy = 0.15\nsamples = 186\nvalue = [182, 4]"] ;
323 -> 324 ;
325 [label="X[32] <= 0.5\nentropy = 0.367\nsamples = 57\nvalue = [53, 4]"] ;
324 -> 325 ;
326 [label="X[34] <= 0.5\nentropy = 0.301\nsamples = 56\nvalue = [53, 3]"] ;
325 -> 326 ;
327 [label="X[6] <= 0.5\nentropy = 0.144\nsamples = 49\nvalue = [48, 1]"] ;
326 -> 327 ;
328 [label="entropy = 0.0\nsamples = 48\nvalue = [48, 0]"] ;
327 -> 328 ;
329 [label="entropy = 0.0\nsamples = 1\nvalue = [0, 1]"] ;
327 -> 329 ;
330 [label="X[1] <= 182258.0\nentropy = 0.863\nsamples = 7\nvalue = [5, 2]"] ;
326 -> 330 ;
331 [label="entropy = 0.0\nsamples = 2\nvalue = [0, 2]"] ;
330 -> 331 ;
332 [label="entropy = 0.0\nsamples = 5\nvalue = [5, 0]"] ;
330 -> 332 ;
333 [label="entropy = 0.0\nsamples = 1\nvalue = [0, 1]"] ;
325 -> 333 ;
334 [label="entropy = 0.0\nsamples = 129\nvalue = [129, 0]"] ;
324 -> 334 ;
335 [label="X[24] <= 0.5\nentropy = 0.463\nsamples = 51\nvalue = [46, 5]"] ;
323 -> 335 ;
336 [label="X[1] <= 210944.0\nentropy = 0.764\nsamples = 18\nvalue = [14, 4]"] ;
335 -> 336 ;
337 [label="entropy = 0.0\nsamples = 7\nvalue = [7, 0]"] ;
336 -> 337 ;
338 [label="X[49] <= 0.5\nentropy = 0.946\nsamples = 11\nvalue = [7, 4]"] ;
336 -> 338 ;
339 [label="X[0] <= 42.5\nentropy = 0.764\nsamples = 9\nvalue = [7, 2]"] ;
338 -> 339 ;
340 [label="entropy = 0.0\nsamples = 5\nvalue = [5, 0]"] ;
339 -> 340 ;
341 [label="X[36] <= 0.5\nentropy = 1.0\nsamples = 4\nvalue = [2, 2]"] ;
339 -> 341 ;
342 [label="X[1] <= 341872.0\nentropy = 0.918\nsamples = 3\nvalue = [2, 1]"] ;
341 -> 342 ;
343 [label="entropy = 0.0\nsamples = 2\nvalue = [2, 0]"] ;
342 -> 343 ;
344 [label="entropy = 0.0\nsamples = 1\nvalue = [0, 1]"] ;
342 -> 344 ;
345 [label="entropy = 0.0\nsamples = 1\nvalue = [0, 1]"] ;
341 -> 345 ;
346 [label="entropy = 0.0\nsamples = 2\nvalue = [0, 2]"] ;
338 -> 346 ;
347 [label="X[1] <= 187929.5\nentropy = 0.196\nsamples = 33\nvalue = [32, 1]"] ;
335 -> 347 ;
348 [label="X[1] <= 185212.0\nentropy = 0.722\nsamples = 5\nvalue = [4, 1]"] ;
347 -> 348 ;
349 [label="entropy = 0.0\nsamples = 4\nvalue = [4, 0]"] ;
348 -> 349 ;
350 [label="entropy = 0.0\nsamples = 1\nvalue = [0, 1]"] ;
348 -> 350 ;
351 [label="entropy = 0.0\nsamples = 28\nvalue = [28, 0]"] ;
347 -> 351 ;
352 [label="X[1] <= 358702.0\nentropy = 0.377\nsamples = 315\nvalue = [292, 23]"] ;
300 -> 352 ;
353 [label="X[1] <= 123304.5\nentropy = 0.348\nsamples = 306\nvalue = [286, 20]"] ;
352 -> 353 ;
354 [label="X[1] <= 118205.0\nentropy = 0.562\nsamples = 76\nvalue = [66, 10]"] ;
353 -> 354 ;
355 [label="X[9] <= 0.5\nentropy = 0.426\nsamples = 69\nvalue = [63, 6]"] ;
354 -> 355 ;
356 [label="X[38] <= 0.5\nentropy = 0.379\nsamples = 68\nvalue = [63, 5]"] ;
355 -> 356 ;
357 [label="X[2] <= 6.0\nentropy = 0.151\nsamples = 46\nvalue = [45, 1]"] ;
356 -> 357 ;
358 [label="X[0] <= 56.0\nentropy = 1.0\nsamples = 2\nvalue = [1, 1]"] ;
357 -> 358 ;
359 [label="entropy = 0.0\nsamples = 1\nvalue = [0, 1]"] ;
358 -> 359 ;
360 [label="entropy = 0.0\nsamples = 1\nvalue = [1, 0]"] ;
358 -> 360 ;
361 [label="entropy = 0.0\nsamples = 44\nvalue = [44, 0]"] ;
357 -> 361 ;
362 [label="X[0] <= 59.5\nentropy = 0.684\nsamples = 22\nvalue = [18, 4]"] ;
356 -> 362 ;
363 [label="X[8] <= 0.5\nentropy = 0.811\nsamples = 16\nvalue = [12, 4]"] ;
362 -> 363 ;
364 [label="entropy = 0.0\nsamples = 4\nvalue = [4, 0]"] ;
363 -> 364 ;
365 [label="X[3] <= 1087.0\nentropy = 0.918\nsamples = 12\nvalue = [8, 4]"] ;
363 -> 365 ;
366 [label="X[29] <= 0.5\nentropy = 0.991\nsamples = 9\nvalue = [5, 4]"] ;
365 -> 366 ;
367 [label="X[0] <= 55.5\nentropy = 0.811\nsamples = 4\nvalue = [1, 3]"] ;
366 -> 367 ;
368 [label="entropy = 0.0\nsamples = 3\nvalue = [0, 3]"] ;
367 -> 368 ;
369 [label="entropy = 0.0\nsamples = 1\nvalue = [1, 0]"] ;
367 -> 369 ;
370 [label="X[5] <= 39.0\nentropy = 0.722\nsamples = 5\nvalue = [4, 1]"] ;
366 -> 370 ;
371 [label="entropy = 0.0\nsamples = 1\nvalue = [0, 1]"] ;
370 -> 371 ;
372 [label="entropy = 0.0\nsamples = 4\nvalue = [4, 0]"] ;
370 -> 372 ;
373 [label="entropy = 0.0\nsamples = 3\nvalue = [3, 0]"] ;
365 -> 373 ;
374 [label="entropy = 0.0\nsamples = 6\nvalue = [6, 0]"] ;
362 -> 374 ;
375 [label="entropy = 0.0\nsamples = 1\nvalue = [0, 1]"] ;
355 -> 375 ;
376 [label="X[24] <= 0.5\nentropy = 0.985\nsamples = 7\nvalue = [3, 4]"] ;
354 -> 376 ;
377 [label="X[1] <= 120133.5\nentropy = 0.811\nsamples = 4\nvalue = [3, 1]"] ;
376 -> 377 ;
378 [label="entropy = 0.0\nsamples = 1\nvalue = [0, 1]"] ;
377 -> 378 ;
379 [label="entropy = 0.0\nsamples = 3\nvalue = [3, 0]"] ;
377 -> 379 ;
380 [label="entropy = 0.0\nsamples = 3\nvalue = [0, 3]"] ;
376 -> 380 ;
381 [label="X[21] <= 0.5\nentropy = 0.258\nsamples = 230\nvalue = [220, 10]"] ;
353 -> 381 ;
382 [label="X[1] <= 181169.5\nentropy = 0.222\nsamples = 224\nvalue = [216, 8]"] ;
381 -> 382 ;
383 [label="X[15] <= 0.5\nentropy = 0.084\nsamples = 95\nvalue = [94, 1]"] ;
382 -> 383 ;
384 [label="entropy = 0.0\nsamples = 93\nvalue = [93, 0]"] ;
383 -> 384 ;
385 [label="X[4] <= 782.0\nentropy = 1.0\nsamples = 2\nvalue = [1, 1]"] ;
383 -> 385 ;
386 [label="entropy = 0.0\nsamples = 1\nvalue = [1, 0]"] ;
385 -> 386 ;
387 [label="entropy = 0.0\nsamples = 1\nvalue = [0, 1]"] ;
385 -> 387 ;
388 [label="X[1] <= 181438.5\nentropy = 0.304\nsamples = 129\nvalue = [122, 7]"] ;
382 -> 388 ;
389 [label="entropy = 0.0\nsamples = 1\nvalue = [0, 1]"] ;
388 -> 389 ;
390 [label="X[5] <= 9.0\nentropy = 0.273\nsamples = 128\nvalue = [122, 6]"] ;
388 -> 390 ;
391 [label="X[35] <= 0.5\nentropy = 1.0\nsamples = 2\nvalue = [1, 1]"] ;
390 -> 391 ;
392 [label="entropy = 0.0\nsamples = 1\nvalue = [0, 1]"] ;
391 -> 392 ;
393 [label="entropy = 0.0\nsamples = 1\nvalue = [1, 0]"] ;
391 -> 393 ;
394 [label="X[1] <= 258916.5\nentropy = 0.241\nsamples = 126\nvalue = [121, 5]"] ;
390 -> 394 ;
395 [label="X[1] <= 257771.0\nentropy = 0.328\nsamples = 83\nvalue = [78, 5]"] ;
394 -> 395 ;
396 [label="X[0] <= 63.5\nentropy = 0.281\nsamples = 82\nvalue = [78, 4]"] ;
395 -> 396 ;
397 [label="X[24] <= 0.5\nentropy = 0.191\nsamples = 68\nvalue = [66, 2]"] ;
396 -> 397 ;
398 [label="X[29] <= 0.5\nentropy = 0.353\nsamples = 30\nvalue = [28, 2]"] ;
397 -> 398 ;
399 [label="entropy = 0.0\nsamples = 18\nvalue = [18, 0]"] ;
398 -> 399 ;
400 [label="X[0] <= 47.5\nentropy = 0.65\nsamples = 12\nvalue = [10, 2]"] ;
398 -> 400 ;
401 [label="entropy = 0.0\nsamples = 1\nvalue = [0, 1]"] ;
400 -> 401 ;
402 [label="X[14] <= 0.5\nentropy = 0.439\nsamples = 11\nvalue = [10, 1]"] ;
400 -> 402 ;
403 [label="entropy = 0.0\nsamples = 9\nvalue = [9, 0]"] ;
402 -> 403 ;
404 [label="X[1] <= 212595.5\nentropy = 1.0\nsamples = 2\nvalue = [1, 1]"] ;
402 -> 404 ;
405 [label="entropy = 0.0\nsamples = 1\nvalue = [1, 0]"] ;
404 -> 405 ;
406 [label="entropy = 0.0\nsamples = 1\nvalue = [0, 1]"] ;
404 -> 406 ;
407 [label="entropy = 0.0\nsamples = 38\nvalue = [38, 0]"] ;
397 -> 407 ;
408 [label="X[5] <= 35.0\nentropy = 0.592\nsamples = 14\nvalue = [12, 2]"] ;
396 -> 408 ;
409 [label="entropy = 0.0\nsamples = 7\nvalue = [7, 0]"] ;
408 -> 409 ;
410 [label="X[1] <= 191088.5\nentropy = 0.863\nsamples = 7\nvalue = [5, 2]"] ;
408 -> 410 ;
411 [label="entropy = 0.0\nsamples = 1\nvalue = [0, 1]"] ;
410 -> 411 ;
412 [label="X[6] <= 0.5\nentropy = 0.65\nsamples = 6\nvalue = [5, 1]"] ;
410 -> 412 ;
413 [label="entropy = 0.0\nsamples = 5\nvalue = [5, 0]"] ;
412 -> 413 ;
414 [label="entropy = 0.0\nsamples = 1\nvalue = [0, 1]"] ;
412 -> 414 ;
415 [label="entropy = 0.0\nsamples = 1\nvalue = [0, 1]"] ;
395 -> 415 ;
416 [label="entropy = 0.0\nsamples = 43\nvalue = [43, 0]"] ;
394 -> 416 ;
417 [label="X[1] <= 222171.0\nentropy = 0.918\nsamples = 6\nvalue = [4, 2]"] ;
381 -> 417 ;
418 [label="entropy = 0.0\nsamples = 4\nvalue = [4, 0]"] ;
417 -> 418 ;
419 [label="entropy = 0.0\nsamples = 2\nvalue = [0, 2]"] ;
417 -> 419 ;
420 [label="X[0] <= 52.0\nentropy = 0.918\nsamples = 9\nvalue = [6, 3]"] ;
352 -> 420 ;
421 [label="X[0] <= 47.5\nentropy = 0.811\nsamples = 4\nvalue = [1, 3]"] ;
420 -> 421 ;
422 [label="entropy = 0.0\nsamples = 1\nvalue = [1, 0]"] ;
421 -> 422 ;
423 [label="entropy = 0.0\nsamples = 3\nvalue = [0, 3]"] ;
421 -> 423 ;
424 [label="entropy = 0.0\nsamples = 5\nvalue = [5, 0]"] ;
420 -> 424 ;
425 [label="X[1] <= 310871.0\nentropy = 0.663\nsamples = 29\nvalue = [24, 5]"] ;
299 -> 425 ;
426 [label="X[29] <= 0.5\nentropy = 0.503\nsamples = 27\nvalue = [24, 3]"] ;
425 -> 426 ;
427 [label="X[1] <= 210381.5\nentropy = 0.779\nsamples = 13\nvalue = [10, 3]"] ;
426 -> 427 ;
428 [label="X[11] <= 0.5\nentropy = 0.469\nsamples = 10\nvalue = [9, 1]"] ;
427 -> 428 ;
429 [label="entropy = 0.0\nsamples = 8\nvalue = [8, 0]"] ;
428 -> 429 ;
430 [label="X[34] <= 0.5\nentropy = 1.0\nsamples = 2\nvalue = [1, 1]"] ;
428 -> 430 ;
431 [label="entropy = 0.0\nsamples = 1\nvalue = [0, 1]"] ;
430 -> 431 ;
432 [label="entropy = 0.0\nsamples = 1\nvalue = [1, 0]"] ;
430 -> 432 ;
433 [label="X[54] <= 0.5\nentropy = 0.918\nsamples = 3\nvalue = [1, 2]"] ;
427 -> 433 ;
434 [label="entropy = 0.0\nsamples = 2\nvalue = [0, 2]"] ;
433 -> 434 ;
435 [label="entropy = 0.0\nsamples = 1\nvalue = [1, 0]"] ;
433 -> 435 ;
436 [label="entropy = 0.0\nsamples = 14\nvalue = [14, 0]"] ;
426 -> 436 ;
437 [label="entropy = 0.0\nsamples = 2\nvalue = [0, 2]"] ;
425 -> 437 ;
438 [label="X[8] <= 0.5\nentropy = 0.771\nsamples = 31\nvalue = [24, 7]"] ;
290 -> 438 ;
439 [label="entropy = 0.0\nsamples = 8\nvalue = [8, 0]"] ;
438 -> 439 ;
440 [label="X[3] <= 4056.0\nentropy = 0.887\nsamples = 23\nvalue = [16, 7]"] ;
438 -> 440 ;
441 [label="X[101] <= 0.5\nentropy = 0.845\nsamples = 22\nvalue = [16, 6]"] ;
440 -> 441 ;
442 [label="entropy = 0.0\nsamples = 1\nvalue = [0, 1]"] ;
441 -> 442 ;
443 [label="X[29] <= 0.5\nentropy = 0.792\nsamples = 21\nvalue = [16, 5]"] ;
441 -> 443 ;
444 [label="X[2] <= 11.5\nentropy = 0.94\nsamples = 14\nvalue = [9, 5]"] ;
443 -> 444 ;
445 [label="X[51] <= 0.5\nentropy = 0.89\nsamples = 13\nvalue = [9, 4]"] ;
444 -> 445 ;
446 [label="entropy = 0.0\nsamples = 3\nvalue = [3, 0]"] ;
445 -> 446 ;
447 [label="X[5] <= 37.0\nentropy = 0.971\nsamples = 10\nvalue = [6, 4]"] ;
445 -> 447 ;
448 [label="entropy = 0.0\nsamples = 2\nvalue = [2, 0]"] ;
447 -> 448 ;
449 [label="X[0] <= 39.5\nentropy = 1.0\nsamples = 8\nvalue = [4, 4]"] ;
447 -> 449 ;
450 [label="entropy = 0.0\nsamples = 2\nvalue = [0, 2]"] ;
449 -> 450 ;
451 [label="X[1] <= 123738.5\nentropy = 0.918\nsamples = 6\nvalue = [4, 2]"] ;
449 -> 451 ;
452 [label="X[2] <= 10.5\nentropy = 0.918\nsamples = 3\nvalue = [1, 2]"] ;
451 -> 452 ;
453 [label="entropy = 0.0\nsamples = 2\nvalue = [0, 2]"] ;
452 -> 453 ;
454 [label="entropy = 0.0\nsamples = 1\nvalue = [1, 0]"] ;
452 -> 454 ;
455 [label="entropy = 0.0\nsamples = 3\nvalue = [3, 0]"] ;
451 -> 455 ;
456 [label="entropy = 0.0\nsamples = 1\nvalue = [0, 1]"] ;
444 -> 456 ;
457 [label="entropy = 0.0\nsamples = 7\nvalue = [7, 0]"] ;
443 -> 457 ;
458 [label="entropy = 0.0\nsamples = 1\nvalue = [0, 1]"] ;
440 -> 458 ;
459 [label="entropy = 0.0\nsamples = 126\nvalue = [126, 0]"] ;
289 -> 459 ;
460 [label="X[38] <= 0.5\nentropy = 0.047\nsamples = 386\nvalue = [384, 2]"] ;
260 -> 460 ;
461 [label="entropy = 0.0\nsamples = 280\nvalue = [280, 0]"] ;
460 -> 461 ;
462 [label="X[2] <= 9.5\nentropy = 0.135\nsamples = 106\nvalue = [104, 2]"] ;
460 -> 462 ;
463 [label="entropy = 0.0\nsamples = 73\nvalue = [73, 0]"] ;
462 -> 463 ;
464 [label="X[1] <= 160628.5\nentropy = 0.33\nsamples = 33\nvalue = [31, 2]"] ;
462 -> 464 ;
465 [label="entropy = 0.0\nsamples = 18\nvalue = [18, 0]"] ;
464 -> 465 ;
466 [label="X[1] <= 166410.0\nentropy = 0.567\nsamples = 15\nvalue = [13, 2]"] ;
464 -> 466 ;
467 [label="entropy = 0.0\nsamples = 1\nvalue = [0, 1]"] ;
466 -> 467 ;
468 [label="X[0] <= 33.5\nentropy = 0.371\nsamples = 14\nvalue = [13, 1]"] ;
466 -> 468 ;
469 [label="X[29] <= 0.5\nentropy = 0.65\nsamples = 6\nvalue = [5, 1]"] ;
468 -> 469 ;
470 [label="entropy = 0.0\nsamples = 4\nvalue = [4, 0]"] ;
469 -> 470 ;
471 [label="X[3] <= 2325.0\nentropy = 1.0\nsamples = 2\nvalue = [1, 1]"] ;
469 -> 471 ;
472 [label="entropy = 0.0\nsamples = 1\nvalue = [0, 1]"] ;
471 -> 472 ;
473 [label="entropy = 0.0\nsamples = 1\nvalue = [1, 0]"] ;
471 -> 473 ;
474 [label="entropy = 0.0\nsamples = 8\nvalue = [8, 0]"] ;
468 -> 474 ;
475 [label="X[21] <= 0.5\nentropy = 0.035\nsamples = 1097\nvalue = [1093, 4]"] ;
115 -> 475 ;
476 [label="X[46] <= 0.5\nentropy = 0.02\nsamples = 1045\nvalue = [1043, 2]"] ;
475 -> 476 ;
477 [label="X[49] <= 0.5\nentropy = 0.011\nsamples = 1018\nvalue = [1017, 1]"] ;
476 -> 477 ;
478 [label="entropy = 0.0\nsamples = 967\nvalue = [967, 0]"] ;
477 -> 478 ;
479 [label="X[28] <= 0.5\nentropy = 0.139\nsamples = 51\nvalue = [50, 1]"] ;
477 -> 479 ;
480 [label="entropy = 0.0\nsamples = 43\nvalue = [43, 0]"] ;
479 -> 480 ;
481 [label="X[34] <= 0.5\nentropy = 0.544\nsamples = 8\nvalue = [7, 1]"] ;
479 -> 481 ;
482 [label="entropy = 0.0\nsamples = 6\nvalue = [6, 0]"] ;
481 -> 482 ;
483 [label="X[1] <= 239529.0\nentropy = 1.0\nsamples = 2\nvalue = [1, 1]"] ;
481 -> 483 ;
484 [label="entropy = 0.0\nsamples = 1\nvalue = [1, 0]"] ;
483 -> 484 ;
485 [label="entropy = 0.0\nsamples = 1\nvalue = [0, 1]"] ;
483 -> 485 ;
486 [label="X[29] <= 0.5\nentropy = 0.229\nsamples = 27\nvalue = [26, 1]"] ;
476 -> 486 ;
487 [label="entropy = 0.0\nsamples = 18\nvalue = [18, 0]"] ;
486 -> 487 ;
488 [label="X[61] <= 0.5\nentropy = 0.503\nsamples = 9\nvalue = [8, 1]"] ;
486 -> 488 ;
489 [label="entropy = 0.0\nsamples = 5\nvalue = [5, 0]"] ;
488 -> 489 ;
490 [label="X[0] <= 40.5\nentropy = 0.811\nsamples = 4\nvalue = [3, 1]"] ;
488 -> 490 ;
491 [label="entropy = 0.0\nsamples = 3\nvalue = [3, 0]"] ;
490 -> 491 ;
492 [label="entropy = 0.0\nsamples = 1\nvalue = [0, 1]"] ;
490 -> 492 ;
493 [label="X[6] <= 0.5\nentropy = 0.235\nsamples = 52\nvalue = [50, 2]"] ;
475 -> 493 ;
494 [label="entropy = 0.0\nsamples = 43\nvalue = [43, 0]"] ;
493 -> 494 ;
495 [label="X[29] <= 0.5\nentropy = 0.764\nsamples = 9\nvalue = [7, 2]"] ;
493 -> 495 ;
496 [label="entropy = 0.0\nsamples = 5\nvalue = [5, 0]"] ;
495 -> 496 ;
497 [label="X[1] <= 223674.5\nentropy = 1.0\nsamples = 4\nvalue = [2, 2]"] ;
495 -> 497 ;
498 [label="entropy = 0.0\nsamples = 2\nvalue = [2, 0]"] ;
497 -> 498 ;
499 [label="entropy = 0.0\nsamples = 2\nvalue = [0, 2]"] ;
497 -> 499 ;
500 [label="X[30] <= 0.5\nentropy = 0.316\nsamples = 507\nvalue = [478, 29]"] ;
114 -> 500 ;
501 [label="X[86] <= 0.5\nentropy = 0.309\nsamples = 506\nvalue = [478, 28]"] ;
500 -> 501 ;
502 [label="X[34] <= 0.5\nentropy = 0.301\nsamples = 505\nvalue = [478, 27]"] ;
501 -> 502 ;
503 [label="X[7] <= 0.5\nentropy = 0.32\nsamples = 465\nvalue = [438, 27]"] ;
502 -> 503 ;
504 [label="X[0] <= 32.5\nentropy = 0.34\nsamples = 428\nvalue = [401, 27]"] ;
503 -> 504 ;
505 [label="X[9] <= 0.5\nentropy = 0.109\nsamples = 69\nvalue = [68, 1]"] ;
504 -> 505 ;
506 [label="entropy = 0.0\nsamples = 67\nvalue = [67, 0]"] ;
505 -> 506 ;
507 [label="X[0] <= 30.5\nentropy = 1.0\nsamples = 2\nvalue = [1, 1]"] ;
505 -> 507 ;
508 [label="entropy = 0.0\nsamples = 1\nvalue = [0, 1]"] ;
507 -> 508 ;
509 [label="entropy = 0.0\nsamples = 1\nvalue = [1, 0]"] ;
507 -> 509 ;
510 [label="X[62] <= 0.5\nentropy = 0.375\nsamples = 359\nvalue = [333, 26]"] ;
504 -> 510 ;
511 [label="X[33] <= 0.5\nentropy = 0.297\nsamples = 266\nvalue = [252, 14]"] ;
510 -> 511 ;
512 [label="X[1] <= 186758.5\nentropy = 0.35\nsamples = 213\nvalue = [199, 14]"] ;
511 -> 512 ;
513 [label="X[1] <= 185976.0\nentropy = 0.435\nsamples = 123\nvalue = [112, 11]"] ;
512 -> 513 ;
514 [label="X[5] <= 37.0\nentropy = 0.409\nsamples = 122\nvalue = [112, 10]"] ;
513 -> 514 ;
515 [label="entropy = 0.0\nsamples = 22\nvalue = [22, 0]"] ;
514 -> 515 ;
516 [label="X[54] <= 0.5\nentropy = 0.469\nsamples = 100\nvalue = [90, 10]"] ;
514 -> 516 ;
517 [label="X[1] <= 23431.5\nentropy = 0.318\nsamples = 52\nvalue = [49, 3]"] ;
516 -> 517 ;
518 [label="entropy = 0.0\nsamples = 1\nvalue = [0, 1]"] ;
517 -> 518 ;
519 [label="X[0] <= 40.5\nentropy = 0.239\nsamples = 51\nvalue = [49, 2]"] ;
517 -> 519 ;
520 [label="X[1] <= 138184.0\nentropy = 0.592\nsamples = 14\nvalue = [12, 2]"] ;
519 -> 520 ;
521 [label="entropy = 0.0\nsamples = 10\nvalue = [10, 0]"] ;
520 -> 521 ;
522 [label="X[1] <= 141900.5\nentropy = 1.0\nsamples = 4\nvalue = [2, 2]"] ;
520 -> 522 ;
523 [label="entropy = 0.0\nsamples = 1\nvalue = [0, 1]"] ;
522 -> 523 ;
524 [label="X[1] <= 166200.0\nentropy = 0.918\nsamples = 3\nvalue = [2, 1]"] ;
522 -> 524 ;
525 [label="entropy = 0.0\nsamples = 2\nvalue = [2, 0]"] ;
524 -> 525 ;
526 [label="entropy = 0.0\nsamples = 1\nvalue = [0, 1]"] ;
524 -> 526 ;
527 [label="entropy = 0.0\nsamples = 37\nvalue = [37, 0]"] ;
519 -> 527 ;
528 [label="X[14] <= 0.5\nentropy = 0.599\nsamples = 48\nvalue = [41, 7]"] ;
516 -> 528 ;
529 [label="X[60] <= 0.5\nentropy = 0.551\nsamples = 47\nvalue = [41, 6]"] ;
528 -> 529 ;
530 [label="X[21] <= 0.5\nentropy = 0.881\nsamples = 10\nvalue = [7, 3]"] ;
529 -> 530 ;
531 [label="X[1] <= 163021.0\nentropy = 0.764\nsamples = 9\nvalue = [7, 2]"] ;
530 -> 531 ;
532 [label="X[0] <= 36.5\nentropy = 0.544\nsamples = 8\nvalue = [7, 1]"] ;
531 -> 532 ;
533 [label="X[0] <= 35.5\nentropy = 0.918\nsamples = 3\nvalue = [2, 1]"] ;
532 -> 533 ;
534 [label="entropy = 0.0\nsamples = 2\nvalue = [2, 0]"] ;
533 -> 534 ;
535 [label="entropy = 0.0\nsamples = 1\nvalue = [0, 1]"] ;
533 -> 535 ;
536 [label="entropy = 0.0\nsamples = 5\nvalue = [5, 0]"] ;
532 -> 536 ;
537 [label="entropy = 0.0\nsamples = 1\nvalue = [0, 1]"] ;
531 -> 537 ;
538 [label="entropy = 0.0\nsamples = 1\nvalue = [0, 1]"] ;
530 -> 538 ;
539 [label="X[24] <= 0.5\nentropy = 0.406\nsamples = 37\nvalue = [34, 3]"] ;
529 -> 539 ;
540 [label="entropy = 0.0\nsamples = 23\nvalue = [23, 0]"] ;
539 -> 540 ;
541 [label="X[1] <= 157395.5\nentropy = 0.75\nsamples = 14\nvalue = [11, 3]"] ;
539 -> 541 ;
542 [label="X[0] <= 42.0\nentropy = 0.985\nsamples = 7\nvalue = [4, 3]"] ;
541 -> 542 ;
543 [label="entropy = 0.0\nsamples = 3\nvalue = [3, 0]"] ;
542 -> 543 ;
544 [label="X[0] <= 44.0\nentropy = 0.811\nsamples = 4\nvalue = [1, 3]"] ;
542 -> 544 ;
545 [label="X[8] <= 0.5\nentropy = 1.0\nsamples = 2\nvalue = [1, 1]"] ;
544 -> 545 ;
546 [label="entropy = 0.0\nsamples = 1\nvalue = [1, 0]"] ;
545 -> 546 ;
547 [label="entropy = 0.0\nsamples = 1\nvalue = [0, 1]"] ;
545 -> 547 ;
548 [label="entropy = 0.0\nsamples = 2\nvalue = [0, 2]"] ;
544 -> 548 ;
549 [label="entropy = 0.0\nsamples = 7\nvalue = [7, 0]"] ;
541 -> 549 ;
550 [label="entropy = 0.0\nsamples = 1\nvalue = [0, 1]"] ;
528 -> 550 ;
551 [label="entropy = 0.0\nsamples = 1\nvalue = [0, 1]"] ;
513 -> 551 ;
552 [label="X[0] <= 73.5\nentropy = 0.211\nsamples = 90\nvalue = [87, 3]"] ;
512 -> 552 ;
553 [label="X[1] <= 259755.0\nentropy = 0.155\nsamples = 89\nvalue = [87, 2]"] ;
552 -> 553 ;
554 [label="entropy = 0.0\nsamples = 50\nvalue = [50, 0]"] ;
553 -> 554 ;
555 [label="X[1] <= 263078.5\nentropy = 0.292\nsamples = 39\nvalue = [37, 2]"] ;
553 -> 555 ;
556 [label="entropy = 0.0\nsamples = 1\nvalue = [0, 1]"] ;
555 -> 556 ;
557 [label="X[2] <= 11.5\nentropy = 0.176\nsamples = 38\nvalue = [37, 1]"] ;
555 -> 557 ;
558 [label="entropy = 0.0\nsamples = 35\nvalue = [35, 0]"] ;
557 -> 558 ;
559 [label="X[35] <= 0.5\nentropy = 0.918\nsamples = 3\nvalue = [2, 1]"] ;
557 -> 559 ;
560 [label="entropy = 0.0\nsamples = 2\nvalue = [2, 0]"] ;
559 -> 560 ;
561 [label="entropy = 0.0\nsamples = 1\nvalue = [0, 1]"] ;
559 -> 561 ;
562 [label="entropy = 0.0\nsamples = 1\nvalue = [0, 1]"] ;
552 -> 562 ;
563 [label="entropy = 0.0\nsamples = 53\nvalue = [53, 0]"] ;
511 -> 563 ;
564 [label="X[5] <= 33.5\nentropy = 0.555\nsamples = 93\nvalue = [81, 12]"] ;
510 -> 564 ;
565 [label="entropy = 0.0\nsamples = 15\nvalue = [15, 0]"] ;
564 -> 565 ;
566 [label="X[0] <= 50.5\nentropy = 0.619\nsamples = 78\nvalue = [66, 12]"] ;
564 -> 566 ;
567 [label="X[1] <= 239187.5\nentropy = 0.429\nsamples = 57\nvalue = [52, 5]"] ;
566 -> 567 ;
568 [label="X[1] <= 111959.0\nentropy = 0.271\nsamples = 43\nvalue = [41, 2]"] ;
567 -> 568 ;
569 [label="X[1] <= 102124.5\nentropy = 0.485\nsamples = 19\nvalue = [17, 2]"] ;
568 -> 569 ;
570 [label="entropy = 0.0\nsamples = 13\nvalue = [13, 0]"] ;
569 -> 570 ;
571 [label="X[21] <= 0.5\nentropy = 0.918\nsamples = 6\nvalue = [4, 2]"] ;
569 -> 571 ;
572 [label="X[1] <= 111012.0\nentropy = 0.722\nsamples = 5\nvalue = [4, 1]"] ;
571 -> 572 ;
573 [label="entropy = 0.0\nsamples = 4\nvalue = [4, 0]"] ;
572 -> 573 ;
574 [label="entropy = 0.0\nsamples = 1\nvalue = [0, 1]"] ;
572 -> 574 ;
575 [label="entropy = 0.0\nsamples = 1\nvalue = [0, 1]"] ;
571 -> 575 ;
576 [label="entropy = 0.0\nsamples = 24\nvalue = [24, 0]"] ;
568 -> 576 ;
577 [label="X[1] <= 240194.0\nentropy = 0.75\nsamples = 14\nvalue = [11, 3]"] ;
567 -> 577 ;
578 [label="entropy = 0.0\nsamples = 1\nvalue = [0, 1]"] ;
577 -> 578 ;
579 [label="X[0] <= 39.5\nentropy = 0.619\nsamples = 13\nvalue = [11, 2]"] ;
577 -> 579 ;
580 [label="entropy = 0.0\nsamples = 5\nvalue = [5, 0]"] ;
579 -> 580 ;
581 [label="X[0] <= 42.5\nentropy = 0.811\nsamples = 8\nvalue = [6, 2]"] ;
579 -> 581 ;
582 [label="X[2] <= 9.5\nentropy = 1.0\nsamples = 4\nvalue = [2, 2]"] ;
581 -> 582 ;
583 [label="entropy = 0.0\nsamples = 1\nvalue = [1, 0]"] ;
582 -> 583 ;
584 [label="X[1] <= 372829.5\nentropy = 0.918\nsamples = 3\nvalue = [1, 2]"] ;
582 -> 584 ;
585 [label="entropy = 0.0\nsamples = 2\nvalue = [0, 2]"] ;
584 -> 585 ;
586 [label="entropy = 0.0\nsamples = 1\nvalue = [1, 0]"] ;
584 -> 586 ;
587 [label="entropy = 0.0\nsamples = 4\nvalue = [4, 0]"] ;
581 -> 587 ;
588 [label="X[1] <= 174227.5\nentropy = 0.918\nsamples = 21\nvalue = [14, 7]"] ;
566 -> 588 ;
589 [label="X[0] <= 70.5\nentropy = 0.946\nsamples = 11\nvalue = [4, 7]"] ;
588 -> 589 ;
590 [label="X[1] <= 50346.5\nentropy = 0.881\nsamples = 10\nvalue = [3, 7]"] ;
589 -> 590 ;
591 [label="entropy = 0.0\nsamples = 2\nvalue = [0, 2]"] ;
590 -> 591 ;
592 [label="X[1] <= 119416.0\nentropy = 0.954\nsamples = 8\nvalue = [3, 5]"] ;
590 -> 592 ;
593 [label="entropy = 0.0\nsamples = 2\nvalue = [2, 0]"] ;
592 -> 593 ;
594 [label="X[1] <= 168118.5\nentropy = 0.65\nsamples = 6\nvalue = [1, 5]"] ;
592 -> 594 ;
595 [label="entropy = 0.0\nsamples = 4\nvalue = [0, 4]"] ;
594 -> 595 ;
596 [label="X[0] <= 53.5\nentropy = 1.0\nsamples = 2\nvalue = [1, 1]"] ;
594 -> 596 ;
597 [label="entropy = 0.0\nsamples = 1\nvalue = [1, 0]"] ;
596 -> 597 ;
598 [label="entropy = 0.0\nsamples = 1\nvalue = [0, 1]"] ;
596 -> 598 ;
599 [label="entropy = 0.0\nsamples = 1\nvalue = [1, 0]"] ;
589 -> 599 ;
600 [label="entropy = 0.0\nsamples = 10\nvalue = [10, 0]"] ;
588 -> 600 ;
601 [label="entropy = 0.0\nsamples = 37\nvalue = [37, 0]"] ;
503 -> 601 ;
602 [label="entropy = 0.0\nsamples = 40\nvalue = [40, 0]"] ;
502 -> 602 ;
603 [label="entropy = 0.0\nsamples = 1\nvalue = [0, 1]"] ;
501 -> 603 ;
604 [label="entropy = 0.0\nsamples = 1\nvalue = [0, 1]"] ;
500 -> 604 ;
605 [label="X[2] <= 10.5\nentropy = 0.946\nsamples = 22\nvalue = [14, 8]"] ;
113 -> 605 ;
606 [label="X[39] <= 0.5\nentropy = 0.831\nsamples = 19\nvalue = [14, 5]"] ;
605 -> 606 ;
607 [label="X[32] <= 0.5\nentropy = 0.567\nsamples = 15\nvalue = [13, 2]"] ;
606 -> 607 ;
608 [label="X[0] <= 72.0\nentropy = 0.371\nsamples = 14\nvalue = [13, 1]"] ;
607 -> 608 ;
609 [label="entropy = 0.0\nsamples = 13\nvalue = [13, 0]"] ;
608 -> 609 ;
610 [label="entropy = 0.0\nsamples = 1\nvalue = [0, 1]"] ;
608 -> 610 ;
611 [label="entropy = 0.0\nsamples = 1\nvalue = [0, 1]"] ;
607 -> 611 ;
612 [label="X[5] <= 29.0\nentropy = 0.811\nsamples = 4\nvalue = [1, 3]"] ;
606 -> 612 ;
613 [label="entropy = 0.0\nsamples = 1\nvalue = [1, 0]"] ;
612 -> 613 ;
614 [label="entropy = 0.0\nsamples = 3\nvalue = [0, 3]"] ;
612 -> 614 ;
615 [label="entropy = 0.0\nsamples = 3\nvalue = [0, 3]"] ;
605 -> 615 ;
616 [label="X[62] <= 0.5\nentropy = 0.463\nsamples = 346\nvalue = [312, 34]"] ;
112 -> 616 ;
617 [label="X[0] <= 33.5\nentropy = 0.327\nsamples = 250\nvalue = [235, 15]"] ;
616 -> 617 ;
618 [label="entropy = 0.0\nsamples = 49\nvalue = [49, 0]"] ;
617 -> 618 ;
619 [label="X[5] <= 36.5\nentropy = 0.383\nsamples = 201\nvalue = [186, 15]"] ;
617 -> 619 ;
620 [label="X[5] <= 13.5\nentropy = 0.122\nsamples = 60\nvalue = [59, 1]"] ;
619 -> 620 ;
621 [label="X[5] <= 11.5\nentropy = 0.722\nsamples = 5\nvalue = [4, 1]"] ;
620 -> 621 ;
622 [label="entropy = 0.0\nsamples = 4\nvalue = [4, 0]"] ;
621 -> 622 ;
623 [label="entropy = 0.0\nsamples = 1\nvalue = [0, 1]"] ;
621 -> 623 ;
624 [label="entropy = 0.0\nsamples = 55\nvalue = [55, 0]"] ;
620 -> 624 ;
625 [label="X[83] <= 0.5\nentropy = 0.467\nsamples = 141\nvalue = [127, 14]"] ;
619 -> 625 ;
626 [label="X[11] <= 0.5\nentropy = 0.446\nsamples = 140\nvalue = [127, 13]"] ;
625 -> 626 ;
627 [label="X[6] <= 0.5\nentropy = 0.492\nsamples = 121\nvalue = [108, 13]"] ;
626 -> 627 ;
628 [label="X[1] <= 214396.5\nentropy = 0.437\nsamples = 111\nvalue = [101, 10]"] ;
627 -> 628 ;
629 [label="X[1] <= 214176.5\nentropy = 0.548\nsamples = 79\nvalue = [69, 10]"] ;
628 -> 629 ;
630 [label="X[34] <= 0.5\nentropy = 0.516\nsamples = 78\nvalue = [69, 9]"] ;
629 -> 630 ;
631 [label="X[0] <= 43.5\nentropy = 0.569\nsamples = 67\nvalue = [58, 9]"] ;
630 -> 631 ;
632 [label="X[1] <= 172064.5\nentropy = 0.345\nsamples = 31\nvalue = [29, 2]"] ;
631 -> 632 ;
633 [label="entropy = 0.0\nsamples = 19\nvalue = [19, 0]"] ;
632 -> 633 ;
634 [label="X[1] <= 178130.5\nentropy = 0.65\nsamples = 12\nvalue = [10, 2]"] ;
632 -> 634 ;
635 [label="entropy = 0.0\nsamples = 1\nvalue = [0, 1]"] ;
634 -> 635 ;
636 [label="X[2] <= 10.5\nentropy = 0.439\nsamples = 11\nvalue = [10, 1]"] ;
634 -> 636 ;
637 [label="entropy = 0.0\nsamples = 7\nvalue = [7, 0]"] ;
636 -> 637 ;
638 [label="X[1] <= 195538.5\nentropy = 0.811\nsamples = 4\nvalue = [3, 1]"] ;
636 -> 638 ;
639 [label="X[1] <= 187100.0\nentropy = 1.0\nsamples = 2\nvalue = [1, 1]"] ;
638 -> 639 ;
640 [label="entropy = 0.0\nsamples = 1\nvalue = [1, 0]"] ;
639 -> 640 ;
641 [label="entropy = 0.0\nsamples = 1\nvalue = [0, 1]"] ;
639 -> 641 ;
642 [label="entropy = 0.0\nsamples = 2\nvalue = [2, 0]"] ;
638 -> 642 ;
643 [label="X[33] <= 0.5\nentropy = 0.711\nsamples = 36\nvalue = [29, 7]"] ;
631 -> 643 ;
644 [label="X[0] <= 52.0\nentropy = 0.555\nsamples = 31\nvalue = [27, 4]"] ;
643 -> 644 ;
645 [label="X[1] <= 54149.5\nentropy = 0.742\nsamples = 19\nvalue = [15, 4]"] ;
644 -> 645 ;
646 [label="X[24] <= 0.5\nentropy = 0.918\nsamples = 3\nvalue = [1, 2]"] ;
645 -> 646 ;
647 [label="entropy = 0.0\nsamples = 2\nvalue = [0, 2]"] ;
646 -> 647 ;
648 [label="entropy = 0.0\nsamples = 1\nvalue = [1, 0]"] ;
646 -> 648 ;
649 [label="X[20] <= 0.5\nentropy = 0.544\nsamples = 16\nvalue = [14, 2]"] ;
645 -> 649 ;
650 [label="X[0] <= 50.5\nentropy = 0.353\nsamples = 15\nvalue = [14, 1]"] ;
649 -> 650 ;
651 [label="entropy = 0.0\nsamples = 13\nvalue = [13, 0]"] ;
650 -> 651 ;
652 [label="X[54] <= 0.5\nentropy = 1.0\nsamples = 2\nvalue = [1, 1]"] ;
650 -> 652 ;
653 [label="entropy = 0.0\nsamples = 1\nvalue = [1, 0]"] ;
652 -> 653 ;
654 [label="entropy = 0.0\nsamples = 1\nvalue = [0, 1]"] ;
652 -> 654 ;
655 [label="entropy = 0.0\nsamples = 1\nvalue = [0, 1]"] ;
649 -> 655 ;
656 [label="entropy = 0.0\nsamples = 12\nvalue = [12, 0]"] ;
644 -> 656 ;
657 [label="X[60] <= 0.5\nentropy = 0.971\nsamples = 5\nvalue = [2, 3]"] ;
643 -> 657 ;
658 [label="entropy = 0.0\nsamples = 2\nvalue = [2, 0]"] ;
657 -> 658 ;
659 [label="entropy = 0.0\nsamples = 3\nvalue = [0, 3]"] ;
657 -> 659 ;
660 [label="entropy = 0.0\nsamples = 11\nvalue = [11, 0]"] ;
630 -> 660 ;
661 [label="entropy = 0.0\nsamples = 1\nvalue = [0, 1]"] ;
629 -> 661 ;
662 [label="entropy = 0.0\nsamples = 32\nvalue = [32, 0]"] ;
628 -> 662 ;
663 [label="X[34] <= 0.5\nentropy = 0.881\nsamples = 10\nvalue = [7, 3]"] ;
627 -> 663 ;
664 [label="entropy = 0.0\nsamples = 7\nvalue = [7, 0]"] ;
663 -> 664 ;
665 [label="entropy = 0.0\nsamples = 3\nvalue = [0, 3]"] ;
663 -> 665 ;
666 [label="entropy = 0.0\nsamples = 19\nvalue = [19, 0]"] ;
626 -> 666 ;
667 [label="entropy = 0.0\nsamples = 1\nvalue = [0, 1]"] ;
625 -> 667 ;
668 [label="X[3] <= 4718.5\nentropy = 0.718\nsamples = 96\nvalue = [77, 19]"] ;
616 -> 668 ;
669 [label="X[53] <= 0.5\nentropy = 0.682\nsamples = 94\nvalue = [77, 17]"] ;
668 -> 669 ;
670 [label="X[5] <= 37.0\nentropy = 0.736\nsamples = 82\nvalue = [65, 17]"] ;
669 -> 670 ;
671 [label="X[4] <= 782.0\nentropy = 0.31\nsamples = 18\nvalue = [17, 1]"] ;
670 -> 671 ;
672 [label="entropy = 0.0\nsamples = 17\nvalue = [17, 0]"] ;
671 -> 672 ;
673 [label="entropy = 0.0\nsamples = 1\nvalue = [0, 1]"] ;
671 -> 673 ;
674 [label="X[1] <= 350918.5\nentropy = 0.811\nsamples = 64\nvalue = [48, 16]"] ;
670 -> 674 ;
675 [label="X[60] <= 0.5\nentropy = 0.85\nsamples = 58\nvalue = [42, 16]"] ;
674 -> 675 ;
676 [label="X[1] <= 76067.5\nentropy = 0.991\nsamples = 9\nvalue = [4, 5]"] ;
675 -> 676 ;
677 [label="entropy = 0.0\nsamples = 2\nvalue = [2, 0]"] ;
676 -> 677 ;
678 [label="X[1] <= 209446.5\nentropy = 0.863\nsamples = 7\nvalue = [2, 5]"] ;
676 -> 678 ;
679 [label="entropy = 0.0\nsamples = 5\nvalue = [0, 5]"] ;
678 -> 679 ;
680 [label="entropy = 0.0\nsamples = 2\nvalue = [2, 0]"] ;
678 -> 680 ;
681 [label="X[0] <= 59.5\nentropy = 0.768\nsamples = 49\nvalue = [38, 11]"] ;
675 -> 681 ;
682 [label="X[1] <= 315119.0\nentropy = 0.684\nsamples = 44\nvalue = [36, 8]"] ;
681 -> 682 ;
683 [label="X[35] <= 0.5\nentropy = 0.601\nsamples = 41\nvalue = [35, 6]"] ;
682 -> 683 ;
684 [label="X[4] <= 1910.5\nentropy = 0.544\nsamples = 40\nvalue = [35, 5]"] ;
683 -> 684 ;
685 [label="X[0] <= 35.5\nentropy = 0.477\nsamples = 39\nvalue = [35, 4]"] ;
684 -> 685 ;
686 [label="entropy = 0.0\nsamples = 13\nvalue = [13, 0]"] ;
685 -> 686 ;
687 [label="X[0] <= 49.0\nentropy = 0.619\nsamples = 26\nvalue = [22, 4]"] ;
685 -> 687 ;
688 [label="X[0] <= 47.0\nentropy = 0.764\nsamples = 18\nvalue = [14, 4]"] ;
687 -> 688 ;
689 [label="X[0] <= 41.0\nentropy = 0.672\nsamples = 17\nvalue = [14, 3]"] ;
688 -> 689 ;
690 [label="X[21] <= 0.5\nentropy = 0.845\nsamples = 11\nvalue = [8, 3]"] ;
689 -> 690 ;
691 [label="X[33] <= 0.5\nentropy = 0.722\nsamples = 10\nvalue = [8, 2]"] ;
690 -> 691 ;
692 [label="entropy = 0.0\nsamples = 3\nvalue = [3, 0]"] ;
691 -> 692 ;
693 [label="X[1] <= 129578.0\nentropy = 0.863\nsamples = 7\nvalue = [5, 2]"] ;
691 -> 693 ;
694 [label="entropy = 0.0\nsamples = 1\nvalue = [0, 1]"] ;
693 -> 694 ;
695 [label="X[0] <= 39.0\nentropy = 0.65\nsamples = 6\nvalue = [5, 1]"] ;
693 -> 695 ;
696 [label="entropy = 0.0\nsamples = 4\nvalue = [4, 0]"] ;
695 -> 696 ;
697 [label="X[7] <= 0.5\nentropy = 1.0\nsamples = 2\nvalue = [1, 1]"] ;
695 -> 697 ;
698 [label="entropy = 0.0\nsamples = 1\nvalue = [1, 0]"] ;
697 -> 698 ;
699 [label="entropy = 0.0\nsamples = 1\nvalue = [0, 1]"] ;
697 -> 699 ;
700 [label="entropy = 0.0\nsamples = 1\nvalue = [0, 1]"] ;
690 -> 700 ;
701 [label="entropy = 0.0\nsamples = 6\nvalue = [6, 0]"] ;
689 -> 701 ;
702 [label="entropy = 0.0\nsamples = 1\nvalue = [0, 1]"] ;
688 -> 702 ;
703 [label="entropy = 0.0\nsamples = 8\nvalue = [8, 0]"] ;
687 -> 703 ;
704 [label="entropy = 0.0\nsamples = 1\nvalue = [0, 1]"] ;
684 -> 704 ;
705 [label="entropy = 0.0\nsamples = 1\nvalue = [0, 1]"] ;
683 -> 705 ;
706 [label="X[33] <= 0.5\nentropy = 0.918\nsamples = 3\nvalue = [1, 2]"] ;
682 -> 706 ;
707 [label="entropy = 0.0\nsamples = 2\nvalue = [0, 2]"] ;
706 -> 707 ;
708 [label="entropy = 0.0\nsamples = 1\nvalue = [1, 0]"] ;
706 -> 708 ;
709 [label="X[8] <= 0.5\nentropy = 0.971\nsamples = 5\nvalue = [2, 3]"] ;
681 -> 709 ;
710 [label="entropy = 0.0\nsamples = 2\nvalue = [0, 2]"] ;
709 -> 710 ;
711 [label="X[54] <= 0.5\nentropy = 0.918\nsamples = 3\nvalue = [2, 1]"] ;
709 -> 711 ;
712 [label="entropy = 0.0\nsamples = 2\nvalue = [2, 0]"] ;
711 -> 712 ;
713 [label="entropy = 0.0\nsamples = 1\nvalue = [0, 1]"] ;
711 -> 713 ;
714 [label="entropy = 0.0\nsamples = 6\nvalue = [6, 0]"] ;
674 -> 714 ;
715 [label="entropy = 0.0\nsamples = 12\nvalue = [12, 0]"] ;
669 -> 715 ;
716 [label="entropy = 0.0\nsamples = 2\nvalue = [0, 2]"] ;
668 -> 716 ;
717 [label="X[4] <= 2218.5\nentropy = 0.427\nsamples = 1913\nvalue = [1746, 167]"] ;
111 -> 717 ;
718 [label="X[0] <= 38.5\nentropy = 0.402\nsamples = 1887\nvalue = [1736, 151]"] ;
717 -> 718 ;
719 [label="X[8] <= 0.5\nentropy = 0.304\nsamples = 886\nvalue = [838, 48]"] ;
718 -> 719 ;
720 [label="X[1] <= 28811.0\nentropy = 0.474\nsamples = 207\nvalue = [186, 21]"] ;
719 -> 720 ;
721 [label="X[1] <= 24516.5\nentropy = 0.918\nsamples = 3\nvalue = [1, 2]"] ;
720 -> 721 ;
722 [label="entropy = 0.0\nsamples = 1\nvalue = [1, 0]"] ;
721 -> 722 ;
723 [label="entropy = 0.0\nsamples = 2\nvalue = [0, 2]"] ;
721 -> 723 ;
724 [label="X[5] <= 98.5\nentropy = 0.447\nsamples = 204\nvalue = [185, 19]"] ;
720 -> 724 ;
725 [label="X[58] <= 0.5\nentropy = 0.432\nsamples = 203\nvalue = [185, 18]"] ;
724 -> 725 ;
726 [label="X[1] <= 345413.5\nentropy = 0.469\nsamples = 180\nvalue = [162, 18]"] ;
725 -> 726 ;
727 [label="X[32] <= 0.5\nentropy = 0.396\nsamples = 166\nvalue = [153, 13]"] ;
726 -> 727 ;
728 [label="X[61] <= 0.5\nentropy = 0.342\nsamples = 157\nvalue = [147, 10]"] ;
727 -> 728 ;
729 [label="X[6] <= 0.5\nentropy = 0.393\nsamples = 129\nvalue = [119, 10]"] ;
728 -> 729 ;
730 [label="X[1] <= 34376.0\nentropy = 0.343\nsamples = 125\nvalue = [117, 8]"] ;
729 -> 730 ;
731 [label="X[1] <= 33356.0\nentropy = 0.764\nsamples = 9\nvalue = [7, 2]"] ;
730 -> 731 ;
732 [label="entropy = 0.0\nsamples = 7\nvalue = [7, 0]"] ;
731 -> 732 ;
733 [label="entropy = 0.0\nsamples = 2\nvalue = [0, 2]"] ;
731 -> 733 ;
734 [label="X[1] <= 115601.5\nentropy = 0.294\nsamples = 116\nvalue = [110, 6]"] ;
730 -> 734 ;
735 [label="entropy = 0.0\nsamples = 35\nvalue = [35, 0]"] ;
734 -> 735 ;
736 [label="X[1] <= 116184.5\nentropy = 0.381\nsamples = 81\nvalue = [75, 6]"] ;
734 -> 736 ;
737 [label="entropy = 0.0\nsamples = 1\nvalue = [0, 1]"] ;
736 -> 737 ;
738 [label="X[7] <= 0.5\nentropy = 0.337\nsamples = 80\nvalue = [75, 5]"] ;
736 -> 738 ;
739 [label="X[5] <= 51.0\nentropy = 0.196\nsamples = 66\nvalue = [64, 2]"] ;
738 -> 739 ;
740 [label="X[33] <= 0.5\nentropy = 0.337\nsamples = 32\nvalue = [30, 2]"] ;
739 -> 740 ;
741 [label="entropy = 0.0\nsamples = 13\nvalue = [13, 0]"] ;
740 -> 741 ;
742 [label="X[1] <= 235386.0\nentropy = 0.485\nsamples = 19\nvalue = [17, 2]"] ;
740 -> 742 ;
743 [label="X[1] <= 228385.0\nentropy = 0.619\nsamples = 13\nvalue = [11, 2]"] ;
742 -> 743 ;
744 [label="X[28] <= 0.5\nentropy = 0.414\nsamples = 12\nvalue = [11, 1]"] ;
743 -> 744 ;
745 [label="entropy = 0.0\nsamples = 9\nvalue = [9, 0]"] ;
744 -> 745 ;
746 [label="X[0] <= 34.5\nentropy = 0.918\nsamples = 3\nvalue = [2, 1]"] ;
744 -> 746 ;
747 [label="entropy = 0.0\nsamples = 2\nvalue = [2, 0]"] ;
746 -> 747 ;
748 [label="entropy = 0.0\nsamples = 1\nvalue = [0, 1]"] ;
746 -> 748 ;
749 [label="entropy = 0.0\nsamples = 1\nvalue = [0, 1]"] ;
743 -> 749 ;
750 [label="entropy = 0.0\nsamples = 6\nvalue = [6, 0]"] ;
742 -> 750 ;
751 [label="entropy = 0.0\nsamples = 34\nvalue = [34, 0]"] ;
739 -> 751 ;
752 [label="X[2] <= 11.5\nentropy = 0.75\nsamples = 14\nvalue = [11, 3]"] ;
738 -> 752 ;
753 [label="X[51] <= 0.5\nentropy = 0.619\nsamples = 13\nvalue = [11, 2]"] ;
752 -> 753 ;
754 [label="entropy = 0.0\nsamples = 7\nvalue = [7, 0]"] ;
753 -> 754 ;
755 [label="X[0] <= 34.5\nentropy = 0.918\nsamples = 6\nvalue = [4, 2]"] ;
753 -> 755 ;
756 [label="X[2] <= 10.5\nentropy = 0.918\nsamples = 3\nvalue = [1, 2]"] ;
755 -> 756 ;
757 [label="entropy = 0.0\nsamples = 1\nvalue = [0, 1]"] ;
756 -> 757 ;
758 [label="X[0] <= 31.0\nentropy = 1.0\nsamples = 2\nvalue = [1, 1]"] ;
756 -> 758 ;
759 [label="entropy = 0.0\nsamples = 1\nvalue = [0, 1]"] ;
758 -> 759 ;
760 [label="entropy = 0.0\nsamples = 1\nvalue = [1, 0]"] ;
758 -> 760 ;
761 [label="entropy = 0.0\nsamples = 3\nvalue = [3, 0]"] ;
755 -> 761 ;
762 [label="entropy = 0.0\nsamples = 1\nvalue = [0, 1]"] ;
752 -> 762 ;
763 [label="X[51] <= 0.5\nentropy = 1.0\nsamples = 4\nvalue = [2, 2]"] ;
729 -> 763 ;
764 [label="entropy = 0.0\nsamples = 1\nvalue = [0, 1]"] ;
763 -> 764 ;
765 [label="X[0] <= 35.5\nentropy = 0.918\nsamples = 3\nvalue = [2, 1]"] ;
763 -> 765 ;
766 [label="entropy = 0.0\nsamples = 2\nvalue = [2, 0]"] ;
765 -> 766 ;
767 [label="entropy = 0.0\nsamples = 1\nvalue = [0, 1]"] ;
765 -> 767 ;
768 [label="entropy = 0.0\nsamples = 28\nvalue = [28, 0]"] ;
728 -> 768 ;
769 [label="X[38] <= 0.5\nentropy = 0.918\nsamples = 9\nvalue = [6, 3]"] ;
727 -> 769 ;
770 [label="X[46] <= 0.5\nentropy = 0.592\nsamples = 7\nvalue = [6, 1]"] ;
769 -> 770 ;
771 [label="entropy = 0.0\nsamples = 6\nvalue = [6, 0]"] ;
770 -> 771 ;
772 [label="entropy = 0.0\nsamples = 1\nvalue = [0, 1]"] ;
770 -> 772 ;
773 [label="entropy = 0.0\nsamples = 2\nvalue = [0, 2]"] ;
769 -> 773 ;
774 [label="X[33] <= 0.5\nentropy = 0.94\nsamples = 14\nvalue = [9, 5]"] ;
726 -> 774 ;
775 [label="X[60] <= 0.5\nentropy = 0.503\nsamples = 9\nvalue = [8, 1]"] ;
774 -> 775 ;
776 [label="entropy = 0.0\nsamples = 1\nvalue = [0, 1]"] ;
775 -> 776 ;
777 [label="entropy = 0.0\nsamples = 8\nvalue = [8, 0]"] ;
775 -> 777 ;
778 [label="X[28] <= 0.5\nentropy = 0.722\nsamples = 5\nvalue = [1, 4]"] ;
774 -> 778 ;
779 [label="entropy = 0.0\nsamples = 3\nvalue = [0, 3]"] ;
778 -> 779 ;
780 [label="X[1] <= 425461.0\nentropy = 1.0\nsamples = 2\nvalue = [1, 1]"] ;
778 -> 780 ;
781 [label="entropy = 0.0\nsamples = 1\nvalue = [1, 0]"] ;
780 -> 781 ;
782 [label="entropy = 0.0\nsamples = 1\nvalue = [0, 1]"] ;
780 -> 782 ;
783 [label="entropy = 0.0\nsamples = 23\nvalue = [23, 0]"] ;
725 -> 783 ;
784 [label="entropy = 0.0\nsamples = 1\nvalue = [0, 1]"] ;
724 -> 784 ;
785 [label="X[24] <= 0.5\nentropy = 0.241\nsamples = 679\nvalue = [652, 27]"] ;
719 -> 785 ;
786 [label="X[60] <= 0.5\nentropy = 0.336\nsamples = 354\nvalue = [332, 22]"] ;
785 -> 786 ;
787 [label="entropy = 0.0\nsamples = 46\nvalue = [46, 0]"] ;
786 -> 787 ;
788 [label="X[36] <= 0.5\nentropy = 0.371\nsamples = 308\nvalue = [286, 22]"] ;
786 -> 788 ;
789 [label="X[3] <= 4718.5\nentropy = 0.408\nsamples = 269\nvalue = [247, 22]"] ;
788 -> 789 ;
790 [label="X[30] <= 0.5\nentropy = 0.385\nsamples = 266\nvalue = [246, 20]"] ;
789 -> 790 ;
791 [label="X[0] <= 29.5\nentropy = 0.372\nsamples = 265\nvalue = [246, 19]"] ;
790 -> 791 ;
792 [label="entropy = 0.0\nsamples = 33\nvalue = [33, 0]"] ;
791 -> 792 ;
793 [label="X[101] <= 0.5\nentropy = 0.409\nsamples = 232\nvalue = [213, 19]"] ;
791 -> 793 ;
794 [label="entropy = 0.0\nsamples = 23\nvalue = [23, 0]"] ;
793 -> 794 ;
795 [label="X[43] <= 0.5\nentropy = 0.439\nsamples = 209\nvalue = [190, 19]"] ;
793 -> 795 ;
796 [label="X[48] <= 0.5\nentropy = 0.469\nsamples = 190\nvalue = [171, 19]"] ;
795 -> 796 ;
797 [label="X[13] <= 0.5\nentropy = 0.496\nsamples = 175\nvalue = [156, 19]"] ;
796 -> 797 ;
798 [label="X[28] <= 0.5\nentropy = 0.515\nsamples = 165\nvalue = [146, 19]"] ;
797 -> 798 ;
799 [label="X[47] <= 0.5\nentropy = 0.633\nsamples = 69\nvalue = [58, 11]"] ;
798 -> 799 ;
800 [label="X[0] <= 34.5\nentropy = 0.497\nsamples = 55\nvalue = [49, 6]"] ;
799 -> 800 ;
801 [label="entropy = 0.0\nsamples = 25\nvalue = [25, 0]"] ;
800 -> 801 ;
802 [label="X[1] <= 122939.5\nentropy = 0.722\nsamples = 30\nvalue = [24, 6]"] ;
800 -> 802 ;
803 [label="X[1] <= 103114.5\nentropy = 0.971\nsamples = 10\nvalue = [6, 4]"] ;
802 -> 803 ;
804 [label="X[2] <= 9.5\nentropy = 0.811\nsamples = 8\nvalue = [6, 2]"] ;
803 -> 804 ;
805 [label="X[2] <= 5.5\nentropy = 1.0\nsamples = 4\nvalue = [2, 2]"] ;
804 -> 805 ;
806 [label="entropy = 0.0\nsamples = 2\nvalue = [2, 0]"] ;
805 -> 806 ;
807 [label="entropy = 0.0\nsamples = 2\nvalue = [0, 2]"] ;
805 -> 807 ;
808 [label="entropy = 0.0\nsamples = 4\nvalue = [4, 0]"] ;
804 -> 808 ;
809 [label="entropy = 0.0\nsamples = 2\nvalue = [0, 2]"] ;
803 -> 809 ;
810 [label="X[5] <= 46.5\nentropy = 0.469\nsamples = 20\nvalue = [18, 2]"] ;
802 -> 810 ;
811 [label="X[45] <= 0.5\nentropy = 0.971\nsamples = 5\nvalue = [3, 2]"] ;
810 -> 811 ;
812 [label="X[20] <= 0.5\nentropy = 0.918\nsamples = 3\nvalue = [1, 2]"] ;
811 -> 812 ;
813 [label="entropy = 0.0\nsamples = 1\nvalue = [1, 0]"] ;
812 -> 813 ;
814 [label="entropy = 0.0\nsamples = 2\nvalue = [0, 2]"] ;
812 -> 814 ;
815 [label="entropy = 0.0\nsamples = 2\nvalue = [2, 0]"] ;
811 -> 815 ;
816 [label="entropy = 0.0\nsamples = 15\nvalue = [15, 0]"] ;
810 -> 816 ;
817 [label="X[1] <= 210893.5\nentropy = 0.94\nsamples = 14\nvalue = [9, 5]"] ;
799 -> 817 ;
818 [label="X[5] <= 44.0\nentropy = 0.991\nsamples = 9\nvalue = [4, 5]"] ;
817 -> 818 ;
819 [label="entropy = 0.0\nsamples = 2\nvalue = [0, 2]"] ;
818 -> 819 ;
820 [label="X[1] <= 122610.0\nentropy = 0.985\nsamples = 7\nvalue = [4, 3]"] ;
818 -> 820 ;
821 [label="entropy = 0.0\nsamples = 2\nvalue = [2, 0]"] ;
820 -> 821 ;
822 [label="X[0] <= 33.5\nentropy = 0.971\nsamples = 5\nvalue = [2, 3]"] ;
820 -> 822 ;
823 [label="X[21] <= 0.5\nentropy = 0.918\nsamples = 3\nvalue = [2, 1]"] ;
822 -> 823 ;
824 [label="entropy = 0.0\nsamples = 2\nvalue = [2, 0]"] ;
823 -> 824 ;
825 [label="entropy = 0.0\nsamples = 1\nvalue = [0, 1]"] ;
823 -> 825 ;
826 [label="entropy = 0.0\nsamples = 2\nvalue = [0, 2]"] ;
822 -> 826 ;
827 [label="entropy = 0.0\nsamples = 5\nvalue = [5, 0]"] ;
817 -> 827 ;
828 [label="X[5] <= 83.0\nentropy = 0.414\nsamples = 96\nvalue = [88, 8]"] ;
798 -> 828 ;
829 [label="X[34] <= 0.5\nentropy = 0.38\nsamples = 95\nvalue = [88, 7]"] ;
828 -> 829 ;
830 [label="X[1] <= 177654.0\nentropy = 0.315\nsamples = 88\nvalue = [83, 5]"] ;
829 -> 830 ;
831 [label="entropy = 0.0\nsamples = 35\nvalue = [35, 0]"] ;
830 -> 831 ;
832 [label="X[1] <= 202282.0\nentropy = 0.451\nsamples = 53\nvalue = [48, 5]"] ;
830 -> 832 ;
833 [label="X[5] <= 56.5\nentropy = 0.985\nsamples = 7\nvalue = [4, 3]"] ;
832 -> 833 ;
834 [label="X[62] <= 0.5\nentropy = 0.971\nsamples = 5\nvalue = [2, 3]"] ;
833 -> 834 ;
835 [label="entropy = 0.0\nsamples = 2\nvalue = [0, 2]"] ;
834 -> 835 ;
836 [label="X[5] <= 47.5\nentropy = 0.918\nsamples = 3\nvalue = [2, 1]"] ;
834 -> 836 ;
837 [label="entropy = 0.0\nsamples = 1\nvalue = [0, 1]"] ;
836 -> 837 ;
838 [label="entropy = 0.0\nsamples = 2\nvalue = [2, 0]"] ;
836 -> 838 ;
839 [label="entropy = 0.0\nsamples = 2\nvalue = [2, 0]"] ;
833 -> 839 ;
840 [label="X[1] <= 463286.5\nentropy = 0.258\nsamples = 46\nvalue = [44, 2]"] ;
832 -> 840 ;
841 [label="X[0] <= 30.5\nentropy = 0.156\nsamples = 44\nvalue = [43, 1]"] ;
840 -> 841 ;
842 [label="X[1] <= 237372.5\nentropy = 0.544\nsamples = 8\nvalue = [7, 1]"] ;
841 -> 842 ;
843 [label="X[38] <= 0.5\nentropy = 1.0\nsamples = 2\nvalue = [1, 1]"] ;
842 -> 843 ;
844 [label="entropy = 0.0\nsamples = 1\nvalue = [0, 1]"] ;
843 -> 844 ;
845 [label="entropy = 0.0\nsamples = 1\nvalue = [1, 0]"] ;
843 -> 845 ;
846 [label="entropy = 0.0\nsamples = 6\nvalue = [6, 0]"] ;
842 -> 846 ;
847 [label="entropy = 0.0\nsamples = 36\nvalue = [36, 0]"] ;
841 -> 847 ;
848 [label="X[61] <= 0.5\nentropy = 1.0\nsamples = 2\nvalue = [1, 1]"] ;
840 -> 848 ;
849 [label="entropy = 0.0\nsamples = 1\nvalue = [0, 1]"] ;
848 -> 849 ;
850 [label="entropy = 0.0\nsamples = 1\nvalue = [1, 0]"] ;
848 -> 850 ;
851 [label="X[0] <= 34.5\nentropy = 0.863\nsamples = 7\nvalue = [5, 2]"] ;
829 -> 851 ;
852 [label="entropy = 0.0\nsamples = 4\nvalue = [4, 0]"] ;
851 -> 852 ;
853 [label="X[47] <= 0.5\nentropy = 0.918\nsamples = 3\nvalue = [1, 2]"] ;
851 -> 853 ;
854 [label="entropy = 0.0\nsamples = 2\nvalue = [0, 2]"] ;
853 -> 854 ;
855 [label="entropy = 0.0\nsamples = 1\nvalue = [1, 0]"] ;
853 -> 855 ;
856 [label="entropy = 0.0\nsamples = 1\nvalue = [0, 1]"] ;
828 -> 856 ;
857 [label="entropy = 0.0\nsamples = 10\nvalue = [10, 0]"] ;
797 -> 857 ;
858 [label="entropy = 0.0\nsamples = 15\nvalue = [15, 0]"] ;
796 -> 858 ;
859 [label="entropy = 0.0\nsamples = 19\nvalue = [19, 0]"] ;
795 -> 859 ;
860 [label="entropy = 0.0\nsamples = 1\nvalue = [0, 1]"] ;
790 -> 860 ;
861 [label="X[33] <= 0.5\nentropy = 0.918\nsamples = 3\nvalue = [1, 2]"] ;
789 -> 861 ;
862 [label="entropy = 0.0\nsamples = 1\nvalue = [1, 0]"] ;
861 -> 862 ;
863 [label="entropy = 0.0\nsamples = 2\nvalue = [0, 2]"] ;
861 -> 863 ;
864 [label="entropy = 0.0\nsamples = 39\nvalue = [39, 0]"] ;
788 -> 864 ;
865 [label="X[5] <= 93.0\nentropy = 0.115\nsamples = 325\nvalue = [320, 5]"] ;
785 -> 865 ;
866 [label="X[51] <= 0.5\nentropy = 0.097\nsamples = 320\nvalue = [316, 4]"] ;
865 -> 866 ;
867 [label="entropy = 0.0\nsamples = 112\nvalue = [112, 0]"] ;
866 -> 867 ;
868 [label="X[1] <= 227155.5\nentropy = 0.137\nsamples = 208\nvalue = [204, 4]"] ;
866 -> 868 ;
869 [label="X[1] <= 226610.5\nentropy = 0.183\nsamples = 144\nvalue = [140, 4]"] ;
868 -> 869 ;
870 [label="X[49] <= 0.5\nentropy = 0.147\nsamples = 143\nvalue = [140, 3]"] ;
869 -> 870 ;
871 [label="X[0] <= 37.5\nentropy = 0.068\nsamples = 124\nvalue = [123, 1]"] ;
870 -> 871 ;
872 [label="entropy = 0.0\nsamples = 110\nvalue = [110, 0]"] ;
871 -> 872 ;
873 [label="X[1] <= 180394.0\nentropy = 0.371\nsamples = 14\nvalue = [13, 1]"] ;
871 -> 873 ;
874 [label="entropy = 0.0\nsamples = 12\nvalue = [12, 0]"] ;
873 -> 874 ;
875 [label="X[1] <= 185873.5\nentropy = 1.0\nsamples = 2\nvalue = [1, 1]"] ;
873 -> 875 ;
876 [label="entropy = 0.0\nsamples = 1\nvalue = [0, 1]"] ;
875 -> 876 ;
877 [label="entropy = 0.0\nsamples = 1\nvalue = [1, 0]"] ;
875 -> 877 ;
878 [label="X[62] <= 0.5\nentropy = 0.485\nsamples = 19\nvalue = [17, 2]"] ;
870 -> 878 ;
879 [label="X[29] <= 0.5\nentropy = 1.0\nsamples = 2\nvalue = [1, 1]"] ;
878 -> 879 ;
880 [label="entropy = 0.0\nsamples = 1\nvalue = [1, 0]"] ;
879 -> 880 ;
881 [label="entropy = 0.0\nsamples = 1\nvalue = [0, 1]"] ;
879 -> 881 ;
882 [label="X[1] <= 76686.5\nentropy = 0.323\nsamples = 17\nvalue = [16, 1]"] ;
878 -> 882 ;
883 [label="X[1] <= 66114.0\nentropy = 0.918\nsamples = 3\nvalue = [2, 1]"] ;
882 -> 883 ;
884 [label="entropy = 0.0\nsamples = 2\nvalue = [2, 0]"] ;
883 -> 884 ;
885 [label="entropy = 0.0\nsamples = 1\nvalue = [0, 1]"] ;
883 -> 885 ;
886 [label="entropy = 0.0\nsamples = 14\nvalue = [14, 0]"] ;
882 -> 886 ;
887 [label="entropy = 0.0\nsamples = 1\nvalue = [0, 1]"] ;
869 -> 887 ;
888 [label="entropy = 0.0\nsamples = 64\nvalue = [64, 0]"] ;
868 -> 888 ;
889 [label="X[54] <= 0.5\nentropy = 0.722\nsamples = 5\nvalue = [4, 1]"] ;
865 -> 889 ;
890 [label="entropy = 0.0\nsamples = 3\nvalue = [3, 0]"] ;
889 -> 890 ;
891 [label="X[0] <= 30.0\nentropy = 1.0\nsamples = 2\nvalue = [1, 1]"] ;
889 -> 891 ;
892 [label="entropy = 0.0\nsamples = 1\nvalue = [1, 0]"] ;
891 -> 892 ;
893 [label="entropy = 0.0\nsamples = 1\nvalue = [0, 1]"] ;
891 -> 893 ;
894 [label="X[62] <= 0.5\nentropy = 0.478\nsamples = 1001\nvalue = [898, 103]"] ;
718 -> 894 ;
895 [label="X[43] <= 0.5\nentropy = 0.336\nsamples = 499\nvalue = [468, 31]"] ;
894 -> 895 ;
896 [label="X[30] <= 0.5\nentropy = 0.371\nsamples = 435\nvalue = [404, 31]"] ;
895 -> 896 ;
897 [label="X[5] <= 43.5\nentropy = 0.363\nsamples = 434\nvalue = [404, 30]"] ;
896 -> 897 ;
898 [label="entropy = 0.0\nsamples = 38\nvalue = [38, 0]"] ;
897 -> 898 ;
899 [label="X[101] <= 0.5\nentropy = 0.387\nsamples = 396\nvalue = [366, 30]"] ;
897 -> 899 ;
900 [label="entropy = 0.0\nsamples = 32\nvalue = [32, 0]"] ;
899 -> 900 ;
901 [label="X[46] <= 0.5\nentropy = 0.411\nsamples = 364\nvalue = [334, 30]"] ;
899 -> 901 ;
902 [label="X[42] <= 0.5\nentropy = 0.402\nsamples = 363\nvalue = [334, 29]"] ;
901 -> 902 ;
903 [label="X[1] <= 119645.0\nentropy = 0.422\nsamples = 338\nvalue = [309, 29]"] ;
902 -> 903 ;
904 [label="X[5] <= 55.5\nentropy = 0.248\nsamples = 97\nvalue = [93, 4]"] ;
903 -> 904 ;
905 [label="entropy = 0.0\nsamples = 69\nvalue = [69, 0]"] ;
904 -> 905 ;
906 [label="X[47] <= 0.5\nentropy = 0.592\nsamples = 28\nvalue = [24, 4]"] ;
904 -> 906 ;
907 [label="X[14] <= 0.5\nentropy = 0.402\nsamples = 25\nvalue = [23, 2]"] ;
906 -> 907 ;
908 [label="X[5] <= 57.0\nentropy = 0.25\nsamples = 24\nvalue = [23, 1]"] ;
907 -> 908 ;
909 [label="X[20] <= 0.5\nentropy = 1.0\nsamples = 2\nvalue = [1, 1]"] ;
908 -> 909 ;
910 [label="entropy = 0.0\nsamples = 1\nvalue = [1, 0]"] ;
909 -> 910 ;
911 [label="entropy = 0.0\nsamples = 1\nvalue = [0, 1]"] ;
909 -> 911 ;
912 [label="entropy = 0.0\nsamples = 22\nvalue = [22, 0]"] ;
908 -> 912 ;
913 [label="entropy = 0.0\nsamples = 1\nvalue = [0, 1]"] ;
907 -> 913 ;
914 [label="X[54] <= 0.5\nentropy = 0.918\nsamples = 3\nvalue = [1, 2]"] ;
906 -> 914 ;
915 [label="entropy = 0.0\nsamples = 2\nvalue = [0, 2]"] ;
914 -> 915 ;
916 [label="entropy = 0.0\nsamples = 1\nvalue = [1, 0]"] ;
914 -> 916 ;
917 [label="X[3] <= 4006.0\nentropy = 0.481\nsamples = 241\nvalue = [216, 25]"] ;
903 -> 917 ;
918 [label="X[28] <= 0.5\nentropy = 0.458\nsamples = 238\nvalue = [215, 23]"] ;
917 -> 918 ;
919 [label="X[5] <= 46.5\nentropy = 0.314\nsamples = 141\nvalue = [133, 8]"] ;
918 -> 919 ;
920 [label="entropy = 0.0\nsamples = 50\nvalue = [50, 0]"] ;
919 -> 920 ;
921 [label="X[8] <= 0.5\nentropy = 0.429\nsamples = 91\nvalue = [83, 8]"] ;
919 -> 921 ;
922 [label="X[51] <= 0.5\nentropy = 0.738\nsamples = 24\nvalue = [19, 5]"] ;
921 -> 922 ;
923 [label="X[1] <= 335084.0\nentropy = 0.991\nsamples = 9\nvalue = [5, 4]"] ;
922 -> 923 ;
924 [label="X[11] <= 0.5\nentropy = 0.985\nsamples = 7\nvalue = [3, 4]"] ;
923 -> 924 ;
925 [label="X[24] <= 0.5\nentropy = 0.971\nsamples = 5\nvalue = [3, 2]"] ;
924 -> 925 ;
926 [label="entropy = 0.0\nsamples = 2\nvalue = [2, 0]"] ;
925 -> 926 ;
927 [label="X[1] <= 183578.5\nentropy = 0.918\nsamples = 3\nvalue = [1, 2]"] ;
925 -> 927 ;
928 [label="entropy = 0.0\nsamples = 1\nvalue = [1, 0]"] ;
927 -> 928 ;
929 [label="entropy = 0.0\nsamples = 2\nvalue = [0, 2]"] ;
927 -> 929 ;
930 [label="entropy = 0.0\nsamples = 2\nvalue = [0, 2]"] ;
924 -> 930 ;
931 [label="entropy = 0.0\nsamples = 2\nvalue = [2, 0]"] ;
923 -> 931 ;
932 [label="X[0] <= 64.5\nentropy = 0.353\nsamples = 15\nvalue = [14, 1]"] ;
922 -> 932 ;
933 [label="entropy = 0.0\nsamples = 13\nvalue = [13, 0]"] ;
932 -> 933 ;
934 [label="X[45] <= 0.5\nentropy = 1.0\nsamples = 2\nvalue = [1, 1]"] ;
932 -> 934 ;
935 [label="entropy = 0.0\nsamples = 1\nvalue = [1, 0]"] ;
934 -> 935 ;
936 [label="entropy = 0.0\nsamples = 1\nvalue = [0, 1]"] ;
934 -> 936 ;
937 [label="X[1] <= 126945.0\nentropy = 0.264\nsamples = 67\nvalue = [64, 3]"] ;
921 -> 937 ;
938 [label="entropy = 0.0\nsamples = 1\nvalue = [0, 1]"] ;
937 -> 938 ;
939 [label="X[5] <= 47.5\nentropy = 0.196\nsamples = 66\nvalue = [64, 2]"] ;
937 -> 939 ;
940 [label="X[0] <= 50.0\nentropy = 1.0\nsamples = 2\nvalue = [1, 1]"] ;
939 -> 940 ;
941 [label="entropy = 0.0\nsamples = 1\nvalue = [0, 1]"] ;
940 -> 941 ;
942 [label="entropy = 0.0\nsamples = 1\nvalue = [1, 0]"] ;
940 -> 942 ;
943 [label="X[38] <= 0.5\nentropy = 0.116\nsamples = 64\nvalue = [63, 1]"] ;
939 -> 943 ;
944 [label="entropy = 0.0\nsamples = 57\nvalue = [57, 0]"] ;
943 -> 944 ;
945 [label="X[35] <= 0.5\nentropy = 0.592\nsamples = 7\nvalue = [6, 1]"] ;
943 -> 945 ;
946 [label="entropy = 0.0\nsamples = 6\nvalue = [6, 0]"] ;
945 -> 946 ;
947 [label="entropy = 0.0\nsamples = 1\nvalue = [0, 1]"] ;
945 -> 947 ;
948 [label="X[5] <= 55.5\nentropy = 0.621\nsamples = 97\nvalue = [82, 15]"] ;
918 -> 948 ;
949 [label="X[53] <= 0.5\nentropy = 0.717\nsamples = 76\nvalue = [61, 15]"] ;
948 -> 949 ;
950 [label="X[51] <= 0.5\nentropy = 0.671\nsamples = 74\nvalue = [61, 13]"] ;
949 -> 950 ;
951 [label="X[0] <= 65.5\nentropy = 0.33\nsamples = 33\nvalue = [31, 2]"] ;
950 -> 951 ;
952 [label="X[1] <= 175260.5\nentropy = 0.201\nsamples = 32\nvalue = [31, 1]"] ;
951 -> 952 ;
953 [label="X[1] <= 157060.5\nentropy = 0.592\nsamples = 7\nvalue = [6, 1]"] ;
952 -> 953 ;
954 [label="entropy = 0.0\nsamples = 6\nvalue = [6, 0]"] ;
953 -> 954 ;
955 [label="entropy = 0.0\nsamples = 1\nvalue = [0, 1]"] ;
953 -> 955 ;
956 [label="entropy = 0.0\nsamples = 25\nvalue = [25, 0]"] ;
952 -> 956 ;
957 [label="entropy = 0.0\nsamples = 1\nvalue = [0, 1]"] ;
951 -> 957 ;
958 [label="X[58] <= 0.5\nentropy = 0.839\nsamples = 41\nvalue = [30, 11]"] ;
950 -> 958 ;
959 [label="X[1] <= 380003.5\nentropy = 0.742\nsamples = 38\nvalue = [30, 8]"] ;
958 -> 959 ;
960 [label="X[29] <= 0.5\nentropy = 0.661\nsamples = 35\nvalue = [29, 6]"] ;
959 -> 960 ;
961 [label="X[1] <= 162844.0\nentropy = 0.89\nsamples = 13\nvalue = [9, 4]"] ;
960 -> 961 ;
962 [label="entropy = 0.0\nsamples = 2\nvalue = [0, 2]"] ;
961 -> 962 ;
963 [label="X[48] <= 0.5\nentropy = 0.684\nsamples = 11\nvalue = [9, 2]"] ;
961 -> 963 ;
964 [label="X[34] <= 0.5\nentropy = 0.469\nsamples = 10\nvalue = [9, 1]"] ;
963 -> 964 ;
965 [label="entropy = 0.0\nsamples = 8\nvalue = [8, 0]"] ;
964 -> 965 ;
966 [label="X[1] <= 255097.0\nentropy = 1.0\nsamples = 2\nvalue = [1, 1]"] ;
964 -> 966 ;
967 [label="entropy = 0.0\nsamples = 1\nvalue = [0, 1]"] ;
966 -> 967 ;
968 [label="entropy = 0.0\nsamples = 1\nvalue = [1, 0]"] ;
966 -> 968 ;
969 [label="entropy = 0.0\nsamples = 1\nvalue = [0, 1]"] ;
963 -> 969 ;
970 [label="X[0] <= 50.0\nentropy = 0.439\nsamples = 22\nvalue = [20, 2]"] ;
960 -> 970 ;
971 [label="entropy = 0.0\nsamples = 15\nvalue = [15, 0]"] ;
970 -> 971 ;
972 [label="X[0] <= 51.5\nentropy = 0.863\nsamples = 7\nvalue = [5, 2]"] ;
970 -> 972 ;
973 [label="entropy = 0.0\nsamples = 1\nvalue = [0, 1]"] ;
972 -> 973 ;
974 [label="X[5] <= 49.5\nentropy = 0.65\nsamples = 6\nvalue = [5, 1]"] ;
972 -> 974 ;
975 [label="entropy = 0.0\nsamples = 4\nvalue = [4, 0]"] ;
974 -> 975 ;
976 [label="X[1] <= 268908.5\nentropy = 1.0\nsamples = 2\nvalue = [1, 1]"] ;
974 -> 976 ;
977 [label="entropy = 0.0\nsamples = 1\nvalue = [0, 1]"] ;
976 -> 977 ;
978 [label="entropy = 0.0\nsamples = 1\nvalue = [1, 0]"] ;
976 -> 978 ;
979 [label="X[47] <= 0.5\nentropy = 0.918\nsamples = 3\nvalue = [1, 2]"] ;
959 -> 979 ;
980 [label="entropy = 0.0\nsamples = 2\nvalue = [0, 2]"] ;
979 -> 980 ;
981 [label="entropy = 0.0\nsamples = 1\nvalue = [1, 0]"] ;
979 -> 981 ;
982 [label="entropy = 0.0\nsamples = 3\nvalue = [0, 3]"] ;
958 -> 982 ;
983 [label="entropy = 0.0\nsamples = 2\nvalue = [0, 2]"] ;
949 -> 983 ;
984 [label="entropy = 0.0\nsamples = 21\nvalue = [21, 0]"] ;
948 -> 984 ;
985 [label="X[1] <= 139293.5\nentropy = 0.918\nsamples = 3\nvalue = [1, 2]"] ;
917 -> 985 ;
986 [label="entropy = 0.0\nsamples = 1\nvalue = [1, 0]"] ;
985 -> 986 ;
987 [label="entropy = 0.0\nsamples = 2\nvalue = [0, 2]"] ;
985 -> 987 ;
988 [label="entropy = 0.0\nsamples = 25\nvalue = [25, 0]"] ;
902 -> 988 ;
989 [label="entropy = 0.0\nsamples = 1\nvalue = [0, 1]"] ;
901 -> 989 ;
990 [label="entropy = 0.0\nsamples = 1\nvalue = [0, 1]"] ;
896 -> 990 ;
991 [label="entropy = 0.0\nsamples = 64\nvalue = [64, 0]"] ;
895 -> 991 ;
992 [label="X[2] <= 7.5\nentropy = 0.593\nsamples = 502\nvalue = [430, 72]"] ;
894 -> 992 ;
993 [label="X[53] <= 0.5\nentropy = 0.201\nsamples = 64\nvalue = [62, 2]"] ;
992 -> 993 ;
994 [label="X[1] <= 39688.0\nentropy = 0.119\nsamples = 62\nvalue = [61, 1]"] ;
993 -> 994 ;
995 [label="X[0] <= 55.0\nentropy = 0.811\nsamples = 4\nvalue = [3, 1]"] ;
994 -> 995 ;
996 [label="entropy = 0.0\nsamples = 3\nvalue = [3, 0]"] ;
995 -> 996 ;
997 [label="entropy = 0.0\nsamples = 1\nvalue = [0, 1]"] ;
995 -> 997 ;
998 [label="entropy = 0.0\nsamples = 58\nvalue = [58, 0]"] ;
994 -> 998 ;
999 [label="X[13] <= 0.5\nentropy = 1.0\nsamples = 2\nvalue = [1, 1]"] ;
993 -> 999 ;
1000 [label="entropy = 0.0\nsamples = 1\nvalue = [1, 0]"] ;
999 -> 1000 ;
1001 [label="entropy = 0.0\nsamples = 1\nvalue = [0, 1]"] ;
999 -> 1001 ;
1002 [label="X[33] <= 0.5\nentropy = 0.634\nsamples = 438\nvalue = [368, 70]"] ;
992 -> 1002 ;
1003 [label="X[57] <= 0.5\nentropy = 0.696\nsamples = 320\nvalue = [260, 60]"] ;
1002 -> 1003 ;
1004 [label="X[28] <= 0.5\nentropy = 0.685\nsamples = 318\nvalue = [260, 58]"] ;
1003 -> 1004 ;
1005 [label="X[0] <= 53.5\nentropy = 0.573\nsamples = 199\nvalue = [172, 27]"] ;
1004 -> 1005 ;
1006 [label="X[5] <= 45.5\nentropy = 0.455\nsamples = 157\nvalue = [142, 15]"] ;
1005 -> 1006 ;
1007 [label="X[21] <= 0.5\nentropy = 0.151\nsamples = 46\nvalue = [45, 1]"] ;
1006 -> 1007 ;
1008 [label="entropy = 0.0\nsamples = 41\nvalue = [41, 0]"] ;
1007 -> 1008 ;
1009 [label="X[39] <= 0.5\nentropy = 0.722\nsamples = 5\nvalue = [4, 1]"] ;
1007 -> 1009 ;
1010 [label="entropy = 0.0\nsamples = 4\nvalue = [4, 0]"] ;
1009 -> 1010 ;
1011 [label="entropy = 0.0\nsamples = 1\nvalue = [0, 1]"] ;
1009 -> 1011 ;
1012 [label="X[1] <= 22497.0\nentropy = 0.547\nsamples = 111\nvalue = [97, 14]"] ;
1006 -> 1012 ;
1013 [label="entropy = 0.0\nsamples = 1\nvalue = [0, 1]"] ;
1012 -> 1013 ;
1014 [label="X[48] <= 0.5\nentropy = 0.524\nsamples = 110\nvalue = [97, 13]"] ;
1012 -> 1014 ;
1015 [label="X[5] <= 94.5\nentropy = 0.5\nsamples = 109\nvalue = [97, 12]"] ;
1014 -> 1015 ;
1016 [label="X[29] <= 0.5\nentropy = 0.475\nsamples = 108\nvalue = [97, 11]"] ;
1015 -> 1016 ;
1017 [label="entropy = 0.0\nsamples = 13\nvalue = [13, 0]"] ;
1016 -> 1017 ;
1018 [label="X[24] <= 0.5\nentropy = 0.517\nsamples = 95\nvalue = [84, 11]"] ;
1016 -> 1018 ;
1019 [label="X[8] <= 0.5\nentropy = 0.755\nsamples = 23\nvalue = [18, 5]"] ;
1018 -> 1019 ;
1020 [label="entropy = 0.0\nsamples = 7\nvalue = [7, 0]"] ;
1019 -> 1020 ;
1021 [label="X[45] <= 0.5\nentropy = 0.896\nsamples = 16\nvalue = [11, 5]"] ;
1019 -> 1021 ;
1022 [label="X[0] <= 40.5\nentropy = 0.994\nsamples = 11\nvalue = [6, 5]"] ;
1021 -> 1022 ;
1023 [label="entropy = 0.0\nsamples = 2\nvalue = [0, 2]"] ;
1022 -> 1023 ;
1024 [label="X[5] <= 57.5\nentropy = 0.918\nsamples = 9\nvalue = [6, 3]"] ;
1022 -> 1024 ;
1025 [label="X[5] <= 48.0\nentropy = 0.592\nsamples = 7\nvalue = [6, 1]"] ;
1024 -> 1025 ;
1026 [label="entropy = 0.0\nsamples = 1\nvalue = [0, 1]"] ;
1025 -> 1026 ;
1027 [label="entropy = 0.0\nsamples = 6\nvalue = [6, 0]"] ;
1025 -> 1027 ;
1028 [label="entropy = 0.0\nsamples = 2\nvalue = [0, 2]"] ;
1024 -> 1028 ;
1029 [label="entropy = 0.0\nsamples = 5\nvalue = [5, 0]"] ;
1021 -> 1029 ;
1030 [label="X[1] <= 316603.0\nentropy = 0.414\nsamples = 72\nvalue = [66, 6]"] ;
1018 -> 1030 ;
1031 [label="X[47] <= 0.5\nentropy = 0.28\nsamples = 62\nvalue = [59, 3]"] ;
1030 -> 1031 ;
1032 [label="X[52] <= 0.5\nentropy = 0.133\nsamples = 54\nvalue = [53, 1]"] ;
1031 -> 1032 ;
1033 [label="entropy = 0.0\nsamples = 52\nvalue = [52, 0]"] ;
1032 -> 1033 ;
1034 [label="X[49] <= 0.5\nentropy = 1.0\nsamples = 2\nvalue = [1, 1]"] ;
1032 -> 1034 ;
1035 [label="entropy = 0.0\nsamples = 1\nvalue = [0, 1]"] ;
1034 -> 1035 ;
1036 [label="entropy = 0.0\nsamples = 1\nvalue = [1, 0]"] ;
1034 -> 1036 ;
1037 [label="X[1] <= 145131.0\nentropy = 0.811\nsamples = 8\nvalue = [6, 2]"] ;
1031 -> 1037 ;
1038 [label="X[1] <= 77456.0\nentropy = 0.918\nsamples = 3\nvalue = [1, 2]"] ;
1037 -> 1038 ;
1039 [label="entropy = 0.0\nsamples = 1\nvalue = [1, 0]"] ;
1038 -> 1039 ;
1040 [label="entropy = 0.0\nsamples = 2\nvalue = [0, 2]"] ;
1038 -> 1040 ;
1041 [label="entropy = 0.0\nsamples = 5\nvalue = [5, 0]"] ;
1037 -> 1041 ;
1042 [label="X[1] <= 365071.5\nentropy = 0.881\nsamples = 10\nvalue = [7, 3]"] ;
1030 -> 1042 ;
1043 [label="X[0] <= 45.0\nentropy = 1.0\nsamples = 6\nvalue = [3, 3]"] ;
1042 -> 1043 ;
1044 [label="X[1] <= 322823.0\nentropy = 0.811\nsamples = 4\nvalue = [3, 1]"] ;
1043 -> 1044 ;
1045 [label="entropy = 0.0\nsamples = 1\nvalue = [0, 1]"] ;
1044 -> 1045 ;
1046 [label="entropy = 0.0\nsamples = 3\nvalue = [3, 0]"] ;
1044 -> 1046 ;
1047 [label="entropy = 0.0\nsamples = 2\nvalue = [0, 2]"] ;
1043 -> 1047 ;
1048 [label="entropy = 0.0\nsamples = 4\nvalue = [4, 0]"] ;
1042 -> 1048 ;
1049 [label="entropy = 0.0\nsamples = 1\nvalue = [0, 1]"] ;
1015 -> 1049 ;
1050 [label="entropy = 0.0\nsamples = 1\nvalue = [0, 1]"] ;
1014 -> 1050 ;
1051 [label="X[1] <= 243331.0\nentropy = 0.863\nsamples = 42\nvalue = [30, 12]"] ;
1005 -> 1051 ;
1052 [label="X[39] <= 0.5\nentropy = 0.946\nsamples = 33\nvalue = [21, 12]"] ;
1051 -> 1052 ;
1053 [label="X[1] <= 209633.5\nentropy = 0.84\nsamples = 26\nvalue = [19, 7]"] ;
1052 -> 1053 ;
1054 [label="X[0] <= 57.5\nentropy = 0.738\nsamples = 24\nvalue = [19, 5]"] ;
1053 -> 1054 ;
1055 [label="X[1] <= 157862.0\nentropy = 0.94\nsamples = 14\nvalue = [9, 5]"] ;
1054 -> 1055 ;
1056 [label="X[5] <= 53.0\nentropy = 0.991\nsamples = 9\nvalue = [4, 5]"] ;
1055 -> 1056 ;
1057 [label="X[5] <= 43.5\nentropy = 0.918\nsamples = 6\nvalue = [4, 2]"] ;
1056 -> 1057 ;
1058 [label="X[38] <= 0.5\nentropy = 0.918\nsamples = 3\nvalue = [1, 2]"] ;
1057 -> 1058 ;
1059 [label="entropy = 0.0\nsamples = 2\nvalue = [0, 2]"] ;
1058 -> 1059 ;
1060 [label="entropy = 0.0\nsamples = 1\nvalue = [1, 0]"] ;
1058 -> 1060 ;
1061 [label="entropy = 0.0\nsamples = 3\nvalue = [3, 0]"] ;
1057 -> 1061 ;
1062 [label="entropy = 0.0\nsamples = 3\nvalue = [0, 3]"] ;
1056 -> 1062 ;
1063 [label="entropy = 0.0\nsamples = 5\nvalue = [5, 0]"] ;
1055 -> 1063 ;
1064 [label="entropy = 0.0\nsamples = 10\nvalue = [10, 0]"] ;
1054 -> 1064 ;
1065 [label="entropy = 0.0\nsamples = 2\nvalue = [0, 2]"] ;
1053 -> 1065 ;
1066 [label="X[1] <= 192975.0\nentropy = 0.863\nsamples = 7\nvalue = [2, 5]"] ;
1052 -> 1066 ;
1067 [label="entropy = 0.0\nsamples = 5\nvalue = [0, 5]"] ;
1066 -> 1067 ;
1068 [label="entropy = 0.0\nsamples = 2\nvalue = [2, 0]"] ;
1066 -> 1068 ;
1069 [label="entropy = 0.0\nsamples = 9\nvalue = [9, 0]"] ;
1051 -> 1069 ;
1070 [label="X[1] <= 45789.0\nentropy = 0.828\nsamples = 119\nvalue = [88, 31]"] ;
1004 -> 1070 ;
1071 [label="entropy = 0.0\nsamples = 3\nvalue = [0, 3]"] ;
1070 -> 1071 ;
1072 [label="X[1] <= 326433.5\nentropy = 0.797\nsamples = 116\nvalue = [88, 28]"] ;
1070 -> 1072 ;
1073 [label="X[1] <= 275898.5\nentropy = 0.722\nsamples = 105\nvalue = [84, 21]"] ;
1072 -> 1073 ;
1074 [label="X[1] <= 265097.5\nentropy = 0.793\nsamples = 88\nvalue = [67, 21]"] ;
1073 -> 1074 ;
1075 [label="X[1] <= 75017.0\nentropy = 0.745\nsamples = 85\nvalue = [67, 18]"] ;
1074 -> 1075 ;
1076 [label="entropy = 0.0\nsamples = 10\nvalue = [10, 0]"] ;
1075 -> 1076 ;
1077 [label="X[1] <= 84836.5\nentropy = 0.795\nsamples = 75\nvalue = [57, 18]"] ;
1075 -> 1077 ;
1078 [label="entropy = 0.0\nsamples = 2\nvalue = [0, 2]"] ;
1077 -> 1078 ;
1079 [label="X[5] <= 58.5\nentropy = 0.759\nsamples = 73\nvalue = [57, 16]"] ;
1077 -> 1079 ;
1080 [label="X[34] <= 0.5\nentropy = 0.825\nsamples = 58\nvalue = [43, 15]"] ;
1079 -> 1080 ;
1081 [label="X[5] <= 45.5\nentropy = 0.764\nsamples = 54\nvalue = [42, 12]"] ;
1080 -> 1081 ;
1082 [label="X[0] <= 57.0\nentropy = 0.337\nsamples = 16\nvalue = [15, 1]"] ;
1081 -> 1082 ;
1083 [label="entropy = 0.0\nsamples = 13\nvalue = [13, 0]"] ;
1082 -> 1083 ;
1084 [label="X[38] <= 0.5\nentropy = 0.918\nsamples = 3\nvalue = [2, 1]"] ;
1082 -> 1084 ;
1085 [label="entropy = 0.0\nsamples = 2\nvalue = [2, 0]"] ;
1084 -> 1085 ;
1086 [label="entropy = 0.0\nsamples = 1\nvalue = [0, 1]"] ;
1084 -> 1086 ;
1087 [label="X[5] <= 57.0\nentropy = 0.868\nsamples = 38\nvalue = [27, 11]"] ;
1081 -> 1087 ;
1088 [label="X[0] <= 39.5\nentropy = 0.842\nsamples = 37\nvalue = [27, 10]"] ;
1087 -> 1088 ;
1089 [label="entropy = 0.0\nsamples = 1\nvalue = [0, 1]"] ;
1088 -> 1089 ;
1090 [label="X[4] <= 1486.0\nentropy = 0.811\nsamples = 36\nvalue = [27, 9]"] ;
1088 -> 1090 ;
1091 [label="X[6] <= 0.5\nentropy = 0.776\nsamples = 35\nvalue = [27, 8]"] ;
1090 -> 1091 ;
1092 [label="X[1] <= 225885.5\nentropy = 0.734\nsamples = 34\nvalue = [27, 7]"] ;
1091 -> 1092 ;
1093 [label="X[1] <= 165529.5\nentropy = 0.592\nsamples = 28\nvalue = [24, 4]"] ;
1092 -> 1093 ;
1094 [label="X[1] <= 163852.5\nentropy = 0.811\nsamples = 16\nvalue = [12, 4]"] ;
1093 -> 1094 ;
1095 [label="X[1] <= 119183.5\nentropy = 0.722\nsamples = 15\nvalue = [12, 3]"] ;
1094 -> 1095 ;
1096 [label="entropy = 0.0\nsamples = 4\nvalue = [4, 0]"] ;
1095 -> 1096 ;
1097 [label="X[1] <= 154949.0\nentropy = 0.845\nsamples = 11\nvalue = [8, 3]"] ;
1095 -> 1097 ;
1098 [label="X[45] <= 0.5\nentropy = 0.985\nsamples = 7\nvalue = [4, 3]"] ;
1097 -> 1098 ;
1099 [label="X[0] <= 49.0\nentropy = 0.971\nsamples = 5\nvalue = [2, 3]"] ;
1098 -> 1099 ;
1100 [label="X[1] <= 124036.5\nentropy = 0.918\nsamples = 3\nvalue = [2, 1]"] ;
1099 -> 1100 ;
1101 [label="entropy = 0.0\nsamples = 1\nvalue = [0, 1]"] ;
1100 -> 1101 ;
1102 [label="entropy = 0.0\nsamples = 2\nvalue = [2, 0]"] ;
1100 -> 1102 ;
1103 [label="entropy = 0.0\nsamples = 2\nvalue = [0, 2]"] ;
1099 -> 1103 ;
1104 [label="entropy = 0.0\nsamples = 2\nvalue = [2, 0]"] ;
1098 -> 1104 ;
1105 [label="entropy = 0.0\nsamples = 4\nvalue = [4, 0]"] ;
1097 -> 1105 ;
1106 [label="entropy = 0.0\nsamples = 1\nvalue = [0, 1]"] ;
1094 -> 1106 ;
1107 [label="entropy = 0.0\nsamples = 12\nvalue = [12, 0]"] ;
1093 -> 1107 ;
1108 [label="X[8] <= 0.5\nentropy = 1.0\nsamples = 6\nvalue = [3, 3]"] ;
1092 -> 1108 ;
1109 [label="entropy = 0.0\nsamples = 2\nvalue = [2, 0]"] ;
1108 -> 1109 ;
1110 [label="X[39] <= 0.5\nentropy = 0.811\nsamples = 4\nvalue = [1, 3]"] ;
1108 -> 1110 ;
1111 [label="entropy = 0.0\nsamples = 3\nvalue = [0, 3]"] ;
1110 -> 1111 ;
1112 [label="entropy = 0.0\nsamples = 1\nvalue = [1, 0]"] ;
1110 -> 1112 ;
1113 [label="entropy = 0.0\nsamples = 1\nvalue = [0, 1]"] ;
1091 -> 1113 ;
1114 [label="entropy = 0.0\nsamples = 1\nvalue = [0, 1]"] ;
1090 -> 1114 ;
1115 [label="entropy = 0.0\nsamples = 1\nvalue = [0, 1]"] ;
1087 -> 1115 ;
1116 [label="X[47] <= 0.5\nentropy = 0.811\nsamples = 4\nvalue = [1, 3]"] ;
1080 -> 1116 ;
1117 [label="entropy = 0.0\nsamples = 3\nvalue = [0, 3]"] ;
1116 -> 1117 ;
1118 [label="entropy = 0.0\nsamples = 1\nvalue = [1, 0]"] ;
1116 -> 1118 ;
1119 [label="X[7] <= 0.5\nentropy = 0.353\nsamples = 15\nvalue = [14, 1]"] ;
1079 -> 1119 ;
1120 [label="entropy = 0.0\nsamples = 14\nvalue = [14, 0]"] ;
1119 -> 1120 ;
1121 [label="entropy = 0.0\nsamples = 1\nvalue = [0, 1]"] ;
1119 -> 1121 ;
1122 [label="entropy = 0.0\nsamples = 3\nvalue = [0, 3]"] ;
1074 -> 1122 ;
1123 [label="entropy = 0.0\nsamples = 17\nvalue = [17, 0]"] ;
1073 -> 1123 ;
1124 [label="X[1] <= 338493.0\nentropy = 0.946\nsamples = 11\nvalue = [4, 7]"] ;
1072 -> 1124 ;
1125 [label="entropy = 0.0\nsamples = 3\nvalue = [0, 3]"] ;
1124 -> 1125 ;
1126 [label="X[8] <= 0.5\nentropy = 1.0\nsamples = 8\nvalue = [4, 4]"] ;
1124 -> 1126 ;
1127 [label="entropy = 0.0\nsamples = 2\nvalue = [0, 2]"] ;
1126 -> 1127 ;
1128 [label="X[0] <= 43.0\nentropy = 0.918\nsamples = 6\nvalue = [4, 2]"] ;
1126 -> 1128 ;
1129 [label="entropy = 0.0\nsamples = 1\nvalue = [0, 1]"] ;
1128 -> 1129 ;
1130 [label="X[45] <= 0.5\nentropy = 0.722\nsamples = 5\nvalue = [4, 1]"] ;
1128 -> 1130 ;
1131 [label="entropy = 0.0\nsamples = 4\nvalue = [4, 0]"] ;
1130 -> 1131 ;
1132 [label="entropy = 0.0\nsamples = 1\nvalue = [0, 1]"] ;
1130 -> 1132 ;
1133 [label="entropy = 0.0\nsamples = 2\nvalue = [0, 2]"] ;
1003 -> 1133 ;
1134 [label="X[2] <= 11.5\nentropy = 0.419\nsamples = 118\nvalue = [108, 10]"] ;
1002 -> 1134 ;
1135 [label="X[4] <= 1534.0\nentropy = 0.342\nsamples = 110\nvalue = [103, 7]"] ;
1134 -> 1135 ;
1136 [label="X[0] <= 41.5\nentropy = 0.276\nsamples = 105\nvalue = [100, 5]"] ;
1135 -> 1136 ;
1137 [label="entropy = 0.0\nsamples = 42\nvalue = [42, 0]"] ;
1136 -> 1137 ;
1138 [label="X[1] <= 112502.5\nentropy = 0.4\nsamples = 63\nvalue = [58, 5]"] ;
1136 -> 1138 ;
1139 [label="entropy = 0.0\nsamples = 17\nvalue = [17, 0]"] ;
1138 -> 1139 ;
1140 [label="X[1] <= 114100.0\nentropy = 0.496\nsamples = 46\nvalue = [41, 5]"] ;
1138 -> 1140 ;
1141 [label="entropy = 0.0\nsamples = 1\nvalue = [0, 1]"] ;
1140 -> 1141 ;
1142 [label="X[36] <= 0.5\nentropy = 0.433\nsamples = 45\nvalue = [41, 4]"] ;
1140 -> 1142 ;
1143 [label="X[47] <= 0.5\nentropy = 0.292\nsamples = 39\nvalue = [37, 2]"] ;
1142 -> 1143 ;
1144 [label="entropy = 0.0\nsamples = 30\nvalue = [30, 0]"] ;
1143 -> 1144 ;
1145 [label="X[1] <= 250791.5\nentropy = 0.764\nsamples = 9\nvalue = [7, 2]"] ;
1143 -> 1145 ;
1146 [label="entropy = 0.0\nsamples = 6\nvalue = [6, 0]"] ;
1145 -> 1146 ;
1147 [label="X[0] <= 47.5\nentropy = 0.918\nsamples = 3\nvalue = [1, 2]"] ;
1145 -> 1147 ;
1148 [label="entropy = 0.0\nsamples = 2\nvalue = [0, 2]"] ;
1147 -> 1148 ;
1149 [label="entropy = 0.0\nsamples = 1\nvalue = [1, 0]"] ;
1147 -> 1149 ;
1150 [label="X[1] <= 182487.5\nentropy = 0.918\nsamples = 6\nvalue = [4, 2]"] ;
1142 -> 1150 ;
1151 [label="X[5] <= 46.0\nentropy = 0.918\nsamples = 3\nvalue = [1, 2]"] ;
1150 -> 1151 ;
1152 [label="entropy = 0.0\nsamples = 1\nvalue = [1, 0]"] ;
1151 -> 1152 ;
1153 [label="entropy = 0.0\nsamples = 2\nvalue = [0, 2]"] ;
1151 -> 1153 ;
1154 [label="entropy = 0.0\nsamples = 3\nvalue = [3, 0]"] ;
1150 -> 1154 ;
1155 [label="X[4] <= 1577.0\nentropy = 0.971\nsamples = 5\nvalue = [3, 2]"] ;
1135 -> 1155 ;
1156 [label="entropy = 0.0\nsamples = 2\nvalue = [0, 2]"] ;
1155 -> 1156 ;
1157 [label="entropy = 0.0\nsamples = 3\nvalue = [3, 0]"] ;
1155 -> 1157 ;
1158 [label="X[8] <= 0.5\nentropy = 0.954\nsamples = 8\nvalue = [5, 3]"] ;
1134 -> 1158 ;
1159 [label="entropy = 0.0\nsamples = 2\nvalue = [2, 0]"] ;
1158 -> 1159 ;
1160 [label="X[0] <= 42.5\nentropy = 1.0\nsamples = 6\nvalue = [3, 3]"] ;
1158 -> 1160 ;
1161 [label="X[5] <= 70.0\nentropy = 0.811\nsamples = 4\nvalue = [3, 1]"] ;
1160 -> 1161 ;
1162 [label="entropy = 0.0\nsamples = 3\nvalue = [3, 0]"] ;
1161 -> 1162 ;
1163 [label="entropy = 0.0\nsamples = 1\nvalue = [0, 1]"] ;
1161 -> 1163 ;
1164 [label="entropy = 0.0\nsamples = 2\nvalue = [0, 2]"] ;
1160 -> 1164 ;
1165 [label="X[4] <= 2391.5\nentropy = 0.961\nsamples = 26\nvalue = [10, 16]"] ;
717 -> 1165 ;
1166 [label="X[2] <= 9.5\nentropy = 0.946\nsamples = 11\nvalue = [7, 4]"] ;
1165 -> 1166 ;
1167 [label="X[53] <= 0.5\nentropy = 0.592\nsamples = 7\nvalue = [6, 1]"] ;
1166 -> 1167 ;
1168 [label="entropy = 0.0\nsamples = 6\nvalue = [6, 0]"] ;
1167 -> 1168 ;
1169 [label="entropy = 0.0\nsamples = 1\nvalue = [0, 1]"] ;
1167 -> 1169 ;
1170 [label="X[47] <= 0.5\nentropy = 0.811\nsamples = 4\nvalue = [1, 3]"] ;
1166 -> 1170 ;
1171 [label="entropy = 0.0\nsamples = 3\nvalue = [0, 3]"] ;
1170 -> 1171 ;
1172 [label="entropy = 0.0\nsamples = 1\nvalue = [1, 0]"] ;
1170 -> 1172 ;
1173 [label="X[4] <= 2656.5\nentropy = 0.722\nsamples = 15\nvalue = [3, 12]"] ;
1165 -> 1173 ;
1174 [label="entropy = 0.0\nsamples = 10\nvalue = [0, 10]"] ;
1173 -> 1174 ;
1175 [label="X[61] <= 0.5\nentropy = 0.971\nsamples = 5\nvalue = [3, 2]"] ;
1173 -> 1175 ;
1176 [label="entropy = 0.0\nsamples = 2\nvalue = [0, 2]"] ;
1175 -> 1176 ;
1177 [label="entropy = 0.0\nsamples = 3\nvalue = [3, 0]"] ;
1175 -> 1177 ;
1178 [label="X[0] <= 27.5\nentropy = 0.619\nsamples = 3908\nvalue = [3307, 601]"] ;
2 -> 1178 ;
1179 [label="X[4] <= 2218.0\nentropy = 0.147\nsamples = 1146\nvalue = [1122, 24]"] ;
1178 -> 1179 ;
1180 [label="X[5] <= 53.5\nentropy = 0.128\nsamples = 1139\nvalue = [1119, 20]"] ;
1179 -> 1180 ;
1181 [label="X[0] <= 23.5\nentropy = 0.095\nsamples = 1062\nvalue = [1049, 13]"] ;
1180 -> 1181 ;
1182 [label="entropy = 0.0\nsamples = 297\nvalue = [297, 0]"] ;
1181 -> 1182 ;
1183 [label="X[92] <= 0.5\nentropy = 0.124\nsamples = 765\nvalue = [752, 13]"] ;
1181 -> 1183 ;
1184 [label="X[30] <= 0.5\nentropy = 0.11\nsamples = 755\nvalue = [744, 11]"] ;
1183 -> 1184 ;
1185 [label="X[71] <= 0.5\nentropy = 0.102\nsamples = 753\nvalue = [743, 10]"] ;
1184 -> 1185 ;
1186 [label="X[1] <= 41220.5\nentropy = 0.094\nsamples = 750\nvalue = [741, 9]"] ;
1185 -> 1186 ;
1187 [label="X[2] <= 14.5\nentropy = 0.337\nsamples = 32\nvalue = [30, 2]"] ;
1186 -> 1187 ;
1188 [label="X[1] <= 40265.0\nentropy = 0.206\nsamples = 31\nvalue = [30, 1]"] ;
1187 -> 1188 ;
1189 [label="entropy = 0.0\nsamples = 28\nvalue = [28, 0]"] ;
1188 -> 1189 ;
1190 [label="X[39] <= 0.5\nentropy = 0.918\nsamples = 3\nvalue = [2, 1]"] ;
1188 -> 1190 ;
1191 [label="entropy = 0.0\nsamples = 2\nvalue = [2, 0]"] ;
1190 -> 1191 ;
1192 [label="entropy = 0.0\nsamples = 1\nvalue = [0, 1]"] ;
1190 -> 1192 ;
1193 [label="entropy = 0.0\nsamples = 1\nvalue = [0, 1]"] ;
1187 -> 1193 ;
1194 [label="X[9] <= 0.5\nentropy = 0.079\nsamples = 718\nvalue = [711, 7]"] ;
1186 -> 1194 ;
1195 [label="X[6] <= 0.5\nentropy = 0.071\nsamples = 707\nvalue = [701, 6]"] ;
1194 -> 1195 ;
1196 [label="X[4] <= 1534.0\nentropy = 0.062\nsamples = 689\nvalue = [684, 5]"] ;
1195 -> 1196 ;
1197 [label="X[1] <= 176829.5\nentropy = 0.053\nsamples = 672\nvalue = [668, 4]"] ;
1196 -> 1197 ;
1198 [label="X[1] <= 176775.5\nentropy = 0.099\nsamples = 311\nvalue = [307, 4]"] ;
1197 -> 1198 ;
1199 [label="X[54] <= 0.5\nentropy = 0.079\nsamples = 310\nvalue = [307, 3]"] ;
1198 -> 1199 ;
1200 [label="X[5] <= 49.0\nentropy = 0.057\nsamples = 304\nvalue = [302, 2]"] ;
1199 -> 1200 ;
1201 [label="X[47] <= 0.5\nentropy = 0.034\nsamples = 279\nvalue = [278, 1]"] ;
1200 -> 1201 ;
1202 [label="entropy = 0.0\nsamples = 252\nvalue = [252, 0]"] ;
1201 -> 1202 ;
1203 [label="X[53] <= 0.5\nentropy = 0.229\nsamples = 27\nvalue = [26, 1]"] ;
1201 -> 1203 ;
1204 [label="entropy = 0.0\nsamples = 16\nvalue = [16, 0]"] ;
1203 -> 1204 ;
1205 [label="X[1] <= 132057.0\nentropy = 0.439\nsamples = 11\nvalue = [10, 1]"] ;
1203 -> 1205 ;
1206 [label="entropy = 0.0\nsamples = 5\nvalue = [5, 0]"] ;
1205 -> 1206 ;
1207 [label="X[1] <= 136681.0\nentropy = 0.65\nsamples = 6\nvalue = [5, 1]"] ;
1205 -> 1207 ;
1208 [label="entropy = 0.0\nsamples = 1\nvalue = [0, 1]"] ;
1207 -> 1208 ;
1209 [label="entropy = 0.0\nsamples = 5\nvalue = [5, 0]"] ;
1207 -> 1209 ;
1210 [label="X[0] <= 26.5\nentropy = 0.242\nsamples = 25\nvalue = [24, 1]"] ;
1200 -> 1210 ;
1211 [label="entropy = 0.0\nsamples = 17\nvalue = [17, 0]"] ;
1210 -> 1211 ;
1212 [label="X[61] <= 0.5\nentropy = 0.544\nsamples = 8\nvalue = [7, 1]"] ;
1210 -> 1212 ;
1213 [label="entropy = 0.0\nsamples = 7\nvalue = [7, 0]"] ;
1212 -> 1213 ;
